<?xml version="1.0"?>
<opencv_storage>
<opencv_ml_svm>
  <format>3</format>
  <svmType>C_SVC</svmType>
  <kernel>
    <type>INTER</type>
    <gamma>1.0000000000000000e-02</gamma></kernel>
  <C>10.</C>
  <term_criteria><epsilon>1.1920928955078125e-07</epsilon>
    <iterations>1000</iterations></term_criteria>
  <var_count>1296</var_count>
  <class_count>7</class_count>
  <class_labels type_id="opencv-matrix">
    <rows>7</rows>
    <cols>1</cols>
    <dt>i</dt>
    <data>
      0 1 2 3 4 5 6</data></class_labels>
  <sv_total>143</sv_total>
  <support_vectors>
    <_>
      0. 0. 0. 0. 0. 0. 0. 0. 0. 0. 0. 0. 0. 0. 0. 0. 0. 0. 0. 0. 0. 0.
      0. 0. 0. 0. 0. 3.18485856e-01 3.30179542e-01 7.75660217e-01
      1.24317065e-01 3.98820132e-01 7.42909908e-02 3.33552733e-02 0.
      8.21914896e-02 0. 0. 0. 0. 0. 0. 0. 0. 0. 1.22370690e-01
      8.33028629e-02 2.29002908e-01 1.33849755e-01 1.90361246e-01 0.
      2.70183198e-02 0. 7.64193460e-02 2.22089440e-01 2.30243772e-01
      5.40890396e-01 8.66898969e-02 2.78108865e-01 5.18052652e-02
      2.32596006e-02 0. 5.73145114e-02 2.47751102e-01 1.04527161e-01
      4.17685747e-01 2.57434368e-01 1.11589976e-01 1.53016925e-01
      7.54842386e-02 1.54380798e-01 1.46527411e-02 1.27938434e-01
      8.70930552e-02 2.39422292e-01 1.39939770e-01 1.99022487e-01 0.
      2.82476246e-02 0. 7.98963457e-02 1.93777122e-02 8.05225819e-02
      8.94625485e-02 9.10828635e-02 4.90317076e-01 2.16649398e-02
      2.74042208e-02 0. 1.51751116e-01 2.59023517e-01 1.09283037e-01
      4.36690032e-01 2.69147366e-01 1.16667204e-01 1.59979030e-01
      7.89186880e-02 1.61404967e-01 1.53194256e-02 5.81331328e-02
      1.08324699e-02 1.44454792e-01 2.48048693e-01 1.55021697e-01
      1.66397631e-01 1.07208937e-01 3.91317718e-02 0. 2.37869415e-02
      9.88447964e-02 1.09818980e-01 1.11807980e-01 6.01884484e-01
      2.65946109e-02 3.36398147e-02 0. 1.86280787e-01 3.04657537e-02
      1.33583367e-01 8.40995368e-03 3.76104601e-02 1.84678167e-01
      1.88052300e-02 4.20497693e-02 6.94771260e-02 0. 7.13608265e-02
      1.32973054e-02 1.77324235e-01 3.04490030e-01 1.90295532e-01
      2.04259962e-01 1.31603405e-01 4.80358712e-02 0. 4.23592255e-02
      5.31892218e-02 3.13431501e-01 2.43713275e-01 2.91812658e-01
      1.45435363e-01 8.87208953e-02 3.47385667e-02 1.88052300e-02
      2.33534351e-02 1.02397941e-01 6.44662604e-03 2.88301893e-02
      1.41564518e-01 1.44150946e-02 3.22331302e-02 5.32574914e-02 0.
      2.27922648e-02 0. 1.28932521e-02 0. 3.19091715e-02 0.
      2.27922648e-02 0. 3.75899635e-02 3.24703418e-02 4.07720432e-02
      2.40260020e-01 1.86817706e-01 2.23688155e-01 1.11483052e-01
      6.80087432e-02 2.66287476e-02 1.44150946e-02 4.13500369e-02
      6.73521608e-02 6.79186508e-02 1.29893646e-01 2.09688842e-01
      1.73541725e-01 7.35070825e-01 3.21767002e-01 2.26509154e-01
      2.45099403e-02 0. 1.38649158e-02 0. 3.43139172e-02 0.
      2.45099403e-02 0. 4.04228307e-02 0. 0. 0. 0. 0. 0. 0. 0. 0.
      4.44662683e-02 7.24279732e-02 7.30371475e-02 1.39682725e-01
      2.25491464e-01 1.86620221e-01 7.90467441e-01 3.46016079e-01
      2.43579388e-01 6.86278343e-02 0. 2.07973737e-02 0. 1.12745732e-01
      1.40371591e-01 1.66525647e-01 9.41641256e-02 0. 0. 0. 0. 0. 0. 0.
      0. 0. 0. 5.29476255e-02 5.48916757e-02 1.28951937e-01
      2.06674580e-02 6.63030371e-02 1.23507250e-02 5.54524641e-03 0.
      1.36641674e-02 2.01333314e-01 0. 3.98298912e-03 4.94029047e-03
      2.00150192e-01 0. 3.12451390e-03 1.35169690e-02 0. 3.81061703e-01
      3.77548844e-01 4.11735475e-01 2.94012129e-01 4.80375558e-01
      3.08125764e-01 9.37943459e-02 1.08405896e-01 3.95209938e-02
      3.80824022e-02 3.94806527e-02 9.27482471e-02 1.48649998e-02
      4.76882383e-02 8.88321828e-03 3.98840010e-03 0. 9.82790720e-03
      4.24826927e-02 1.79236140e-02 7.16219470e-02 4.41431142e-02
      1.91346984e-02 2.62383129e-02 1.29435295e-02 2.64721811e-02
      2.51255347e-03 2.74077386e-01 2.71550745e-01 2.96139359e-01
      2.11467251e-01 3.45508516e-01 2.21618429e-01 6.74612671e-02
      7.79705793e-02 2.84253433e-02 5.24460971e-02 7.17887431e-02
      7.43540153e-02 1.07136071e-01 4.92139786e-01 2.80427307e-01
      3.00485581e-01 2.40995318e-01 1.38715521e-01 4.35930826e-02
      1.83920916e-02 7.34939575e-02 4.52969000e-02 1.96348298e-02
      2.69241147e-02 1.32818399e-02 2.71640960e-02 2.57822522e-03
      9.78367683e-03 1.82308059e-03 2.43114196e-02 4.17460427e-02
      2.60898042e-02 2.80043483e-02 1.80430245e-02 6.58579031e-03 0.
      5.38169034e-02 7.36651123e-02 7.62974396e-02 1.09936334e-01
      5.05003035e-01 2.87756950e-01 3.08339477e-01 2.47294307e-01
      1.42341197e-01 2.42035557e-02 1.39061630e-01 2.69236058e-01
      1.53598666e-01 4.79978591e-01 2.68721372e-01 1.10277109e-01
      1.07879765e-01 3.26332524e-02 1.10688917e-02 2.06256635e-03
      2.75050458e-02 4.72299382e-02 2.95170452e-02 3.16830911e-02
      2.04132143e-02 7.45092053e-03 0. 6.57040719e-03 8.25026538e-03
      4.86168638e-02 3.78027558e-02 4.52635288e-02 2.25587115e-02
      1.37616396e-02 5.38835442e-03 2.91690929e-03 2.73830127e-02
      1.57329217e-01 3.04603755e-01 1.73775882e-01 5.43030143e-01
      3.04021478e-01 1.24763466e-01 1.22051202e-01 3.69200632e-02
      5.68413222e-03 9.49925464e-03 1.75772816e-01 1.79181874e-01
      3.66496652e-01 2.86035866e-01 3.27091366e-01 1.81423187e-01
      3.26483920e-02 6.91397954e-03 8.68167821e-03 5.11590801e-02
      3.97794954e-02 4.76303995e-02 2.37383246e-02 1.44812474e-02
      5.67011628e-03 3.06943688e-03 8.80475156e-03 1.43414401e-02
      1.44620631e-02 2.76585333e-02 4.46494929e-02 3.69526111e-02
      1.56520218e-01 6.85145333e-02 4.82310802e-02 5.98136056e-03
      9.99597833e-03 1.84964135e-01 1.88551441e-01 3.85661066e-01
      3.00992936e-01 3.44195247e-01 1.90909967e-01 3.43556032e-02
      1.89279839e-01 1.16469905e-01 5.53597659e-02 9.42411721e-02
      5.40457845e-01 3.68100733e-01 2.14163475e-02 0. 4.17251550e-02
      1.03505263e-02 1.68592427e-02 1.70010421e-02 3.25143039e-02
      5.24882190e-02 4.34400626e-02 1.83999121e-01 8.05430412e-02
      5.66985942e-02 1.59746762e-02 0. 4.84105758e-03 0. 2.62441095e-02
      3.26746516e-02 3.87625992e-02 2.19188221e-02 0. 2.22510070e-01
      1.36917517e-01 6.50788024e-02 1.10786289e-01 6.35341346e-01
      4.32725012e-01 2.51762308e-02 0. 4.90504801e-02 9.82431322e-02
      4.42007966e-02 8.95516574e-03 3.07514630e-02 1.43954977e-01
      1.56594858e-01 4.05168831e-01 1.65097460e-01 1.34291515e-01
      1.18040979e-01 0. 2.33521173e-03 2.89647374e-03 1.17347315e-01 0.
      1.83189090e-03 7.92494882e-03 0. 2.23415062e-01 2.21355483e-01
      2.41398975e-01 1.72378227e-01 2.81642407e-01 1.80652991e-01
      5.49912751e-02 6.35579750e-02 2.31710132e-02 7.81108215e-02 0. 0.
      1.40302544e-02 3.77551168e-02 0. 7.00563565e-03 5.05847391e-03 0.
      8.18283111e-02 2.08691210e-02 1.26233259e-02 3.59062143e-02
      6.20146096e-02 8.44080970e-02 5.88922441e-01 4.35315102e-01
      3.19498748e-01 1.61615953e-01 1.60126075e-01 1.74625307e-01
      1.24696478e-01 2.03736961e-01 1.30682349e-01 3.97800729e-02
      4.59771268e-02 1.67616513e-02 3.09260339e-02 4.23318669e-02
      4.38445359e-02 6.31752238e-02 2.90201426e-01 1.65360346e-01
      1.77188158e-01 1.42108366e-01 8.17967653e-02 5.91936819e-02
      1.50964884e-02 9.13157221e-03 2.59741526e-02 4.48606722e-02
      6.10598736e-02 4.26019907e-01 3.14902067e-01 2.31121823e-01
      4.94358629e-01 5.43488599e-02 6.37851190e-03 3.01208682e-02
      4.55971472e-02 7.51604289e-02 1.36275843e-01 1.05415449e-01
      1.76410779e-01 2.40321252e-02 3.28954123e-02 3.40708867e-02
      4.90924530e-02 2.25510865e-01 1.28498867e-01 1.37690067e-01
      1.10430136e-01 6.35629594e-02 1.08081819e-02 6.20984547e-02
      1.20228298e-01 6.85900226e-02 2.14336112e-01 1.19998462e-01
      4.92446274e-02 4.81740870e-02 1.45724928e-02 3.84158164e-01
      4.22336273e-02 4.95663937e-03 2.34064441e-02 3.54328118e-02
      5.84059618e-02 1.05897777e-01 8.19166526e-02 1.37085989e-01
      7.74938047e-01 3.49955857e-02 0. 8.14102998e-04 0. 0.
      4.39480925e-03 1.48573052e-02 1.02306016e-01 9.14431829e-03
      5.25387228e-02 1.01719774e-01 5.80309443e-02 1.81340188e-01
      1.01525322e-01 4.16636728e-02 4.07579355e-02 1.23291332e-02
      1.89816649e-03 3.17219342e-03 5.86978048e-02 5.98362274e-02
      1.22388370e-01 9.55191851e-02 1.09229319e-01 6.05846941e-02
      1.09026460e-02 6.55640364e-01 2.96081975e-02 0. 6.88776083e-04 0.
      0. 3.71825113e-03 1.25700999e-02 8.65565389e-02 6.46723688e-01
      4.50270697e-02 2.28233412e-02 2.06632819e-03 0. 0. 2.90170163e-02
      3.42405848e-02 1.69157580e-01 2.09659012e-03 3.50379664e-03
      6.48337379e-02 6.60911649e-02 1.35182157e-01 1.05504222e-01
      1.20647535e-01 6.69178739e-02 1.20423473e-02 6.63464889e-02
      4.08251025e-02 1.94047391e-02 3.30334753e-02 1.89441621e-01
      1.29026890e-01 7.50687160e-03 0. 1.46255270e-02 7.14328527e-01
      4.97339442e-02 2.52091642e-02 2.28233030e-03 0. 0. 3.20502929e-02
      3.78199033e-02 1.86840370e-01 5.53788304e-01 5.58502786e-02
      3.35965119e-02 7.50368163e-02 4.31363024e-02 8.36679339e-02
      3.09683811e-02 2.91857347e-02 6.71329200e-02 9.11949575e-02
      5.61151579e-02 2.66723167e-02 4.54053655e-02 2.60392398e-01
      1.77350804e-01 1.03183892e-02 0. 2.01031640e-02 4.02645953e-02
      1.81155391e-02 3.67024262e-03 1.26033770e-02 5.89994341e-02
      6.41798452e-02 1.66057006e-01 6.76646084e-02 5.50388992e-02
      7.61196375e-01 7.67676458e-02 4.61792722e-02 1.03140049e-01
      5.92919588e-02 1.15003742e-01 4.25668396e-02 4.01165448e-02
      9.22759324e-02 3.50042701e-01 1.36261895e-01 1.58964340e-02
      9.80417151e-03 3.30681703e-03 2.72284318e-02 5.63130667e-03
      7.92264566e-02 2.56556123e-01 6.94883168e-02 0. 0. 1.24814818e-02
      3.35874036e-02 0. 6.23229705e-03 4.50007850e-03 0. 7.27954358e-02
      1.85654182e-02 1.12298606e-02 3.19425948e-02 5.51689342e-02
      7.50904456e-02 5.23912430e-01 3.87261510e-01 2.84229904e-01
      1.87963650e-01 2.88753398e-02 1.46670481e-02 1.57265440e-02
      2.13496368e-02 3.82640734e-02 1.35002369e-02 3.07084192e-02
      1.00865662e-01 1.67898133e-01 5.83748221e-02 1.97986096e-01
      1.08048476e-01 2.66782284e-01 2.76457280e-01 2.35937983e-01
      2.97280550e-01 2.21706241e-01 5.15168831e-02 1.31386323e-02
      7.94730335e-03 2.26055775e-02 3.90427150e-02 5.31410463e-02
      3.70769590e-01 2.74062574e-01 2.01147750e-01 4.30245489e-01
      4.73003834e-02 5.55128604e-03 2.62145083e-02 3.96836773e-02
      6.54129088e-02 1.18602298e-01 9.17441696e-02 1.53532147e-01
      1.18820474e-01 4.13115025e-02 1.40113547e-01 7.64652416e-02
      1.88800186e-01 1.95647120e-01 1.66971862e-01 2.10383624e-01
      1.56900138e-01 4.92934763e-01 1.25229016e-01 8.56790170e-02
      4.34614792e-02 2.08000969e-02 9.54486802e-02 1.15330878e-03
      4.02343571e-02 9.04918313e-02 3.26607466e-01 3.59066129e-02
      4.21408610e-03 1.98999271e-02 3.01246271e-02 4.96561714e-02
      9.00332406e-02 6.96447268e-02 1.16549157e-01 6.58844709e-01
      2.97529027e-02 0. 6.92142290e-04 0. 0. 3.73642333e-03
      1.26315337e-02 8.69795680e-02 3.74196082e-01 9.50637162e-02
      6.50405586e-02 3.29924263e-02 1.57897454e-02 7.24568963e-02
      8.75498459e-04 3.05426605e-02 6.86940551e-02 4.65179324e-01
      4.05842066e-03 2.02426836e-02 1.95767405e-03 3.12097254e-03
      5.53713832e-03 1.04184702e-01 7.26053864e-02 1.43148616e-01
      5.56237817e-01 2.51192562e-02 0. 5.84349735e-04 0. 0.
      3.15452181e-03 1.06643289e-02 7.34335780e-02 5.48672974e-01
      3.82004492e-02 1.93630606e-02 1.75304909e-03 0. 0. 2.46177055e-02
      2.90493201e-02 1.43511355e-01 3.92733425e-01 3.42637207e-03
      1.70901362e-02 1.65279058e-03 2.63491971e-03 4.67479788e-03
      8.79592299e-02 6.12979978e-02 1.20854989e-01 3.85216355e-01
      6.39517605e-02 1.31254286e-01 3.27368900e-02 5.20765930e-02
      2.04104576e-02 2.68720202e-02 2.38855481e-02 6.04167655e-02
      5.83183825e-01 4.06032130e-02 2.05809735e-02 1.86331384e-03 0. 0.
      2.61661280e-02 3.08764875e-02 1.52538046e-01 4.52117443e-01
      4.55966368e-02 2.74284743e-02 6.12606890e-02 3.52168381e-02
      6.83072060e-02 2.52828486e-02 2.38274802e-02 5.48078828e-02
      4.09446001e-01 6.79742470e-02 1.39510021e-01 3.47959995e-02
      5.53521477e-02 2.16942504e-02 2.85622366e-02 2.53879204e-02
      6.42169043e-02 4.41589981e-01 2.45568138e-02 0. 7.35303983e-02
      8.71946439e-02 8.88181664e-03 0. 3.48295644e-03 3.22377644e-02
      6.29886687e-01 6.35248944e-02 3.82131487e-02 8.53479430e-02
      4.90638427e-02 9.51650962e-02 3.52238789e-02 3.31962705e-02
      7.63579383e-02 2.89658815e-01 1.12756126e-01 1.31542301e-02
      8.11290927e-03 2.73637683e-03 2.25314088e-02 4.65988182e-03
      6.55595511e-02 2.12299079e-01 6.15219891e-01 3.42123732e-02 0.
      1.02442004e-01 1.21478930e-01 1.23740807e-02 0. 4.85242950e-03
      4.49134186e-02 4.78011928e-02 2.16848161e-02 1.09654672e-01
      2.47787405e-02 1.62532497e-02 8.34472105e-03 1.49100935e-02
      6.93652546e-03 3.09212599e-02 2.66245782e-01 4.09011915e-02
      2.07755044e-02 2.22762544e-02 3.02412212e-02 5.42000942e-02
      1.91227458e-02 4.34977040e-02 1.42873675e-01 2.37823471e-01
      8.26864690e-02 2.80442327e-01 1.53047949e-01 3.77890408e-01
      3.91594797e-01 3.34200203e-01 4.21090424e-01 3.14041317e-01 0.
      2.94263056e-03 0. 0. 0. 0. 1.78993233e-02 0. 7.74257258e-03
      3.48075964e-02 1.16879195e-02 8.07936210e-03 8.83985218e-03
      2.37420686e-02 4.80596907e-02 1.73476890e-01 8.95229727e-02
      8.87799934e-02 1.65930852e-01 5.76908402e-02 1.95666283e-01
      1.06782466e-01 2.63656378e-01 2.73218036e-01 2.33173490e-01
      2.93797314e-01 2.19108492e-01 6.88375413e-01 1.74880296e-01
      1.19649358e-01 6.06932491e-02 2.90469974e-02 1.33292526e-01
      1.61057687e-03 5.61866276e-02 1.26370370e-01 2.42854655e-02
      8.15473124e-03 5.63701941e-03 6.16761763e-03 1.65649820e-02
      3.35315354e-02 1.21035859e-01 6.24607094e-02 6.19423315e-02
      1.31668737e-02 5.09309163e-03 3.22115375e-03 1.50202857e-02
      2.62341667e-02 2.40556039e-02 1.02051105e-02 7.44068669e-03
      5.94915822e-03 5.75955510e-01 1.46320269e-01 1.00109197e-01
      5.07813208e-02 2.43032780e-02 1.11524276e-01 1.34755066e-03
      4.70106825e-02 1.05732590e-01 7.15995193e-01 6.24664454e-03
      3.11571546e-02 3.01321479e-03 4.80374182e-03 8.52265861e-03
      1.60359114e-01 1.11752830e-01 2.20331624e-01 1.10165672e-02
      4.26132930e-03 2.69510131e-03 1.25672948e-02 2.19498165e-02
      2.01270375e-02 8.53849482e-03 6.22553425e-03 4.97759040e-03
      7.22378027e-03 5.56625798e-03 9.55687091e-03 7.42341531e-03
      7.40202814e-02 6.65048650e-03 1.26478644e-02 9.42661427e-03
      1.50660740e-03 6.47310674e-01 5.64741157e-03 2.81682871e-02
      2.72416091e-03 4.34292480e-03 7.70509057e-03 1.44976065e-01
      1.01032518e-01 1.99195489e-01 6.34920895e-01 1.05406508e-01
      2.16335818e-01 5.39575629e-02 8.58336315e-02 3.36409025e-02
      4.42909710e-02 3.93686108e-02 9.95800570e-02 6.53081201e-03
      5.03229350e-03 8.64009280e-03 6.71129627e-03 6.69196099e-02
      6.01251330e-03 1.14345700e-02 8.52233078e-03 1.36208045e-03
      2.36900207e-02 4.81568137e-03 4.41369973e-02 3.44770029e-02
      8.90155956e-02 8.15730095e-02 6.09140843e-03 6.00618310e-03
      4.39594965e-03 6.24536812e-01 1.03682593e-01 2.12797657e-01
      5.30750901e-02 8.44298303e-02 3.30907069e-02 4.35665958e-02
      3.87247428e-02 9.79514346e-02 6.73566759e-01 3.74570377e-02 0.
      1.12157501e-01 1.32999867e-01 1.35476263e-02 0. 5.31262858e-03
      4.91729602e-02 2.33025718e-02 4.73692128e-03 4.34151404e-02
      3.39131318e-02 8.75597522e-02 8.02388862e-02 5.99178392e-03
      5.90795232e-03 4.32405435e-03 3.10663767e-02 6.59694299e-02
      1.43802818e-02 6.48665726e-02 9.59279761e-02 5.84786795e-02
      4.19424847e-03 4.08413671e-02 7.82090891e-03 9.16549683e-01
      5.09693138e-02 0. 1.52617276e-01 1.80978328e-01 1.84348058e-02 0.
      7.22910976e-03 6.69116452e-02 7.12138265e-02 3.23058628e-02
      1.63362652e-01 3.69151682e-02 2.42139604e-02 1.24318991e-02
      2.22129375e-02 1.03339795e-02 4.60662432e-02 4.22732830e-02
      8.97672847e-02 1.95678342e-02 8.82665887e-02 1.30533099e-01
      7.95743167e-02 5.70728444e-03 5.55745065e-02 1.06422286e-02
      8.50944221e-02 4.47051413e-02 3.33806723e-02 5.81694804e-02
      2.07548235e-02 0. 0. 0. 1.82312541e-03 0. 1.22689260e-02 0. 0. 0.
      0. 7.46289641e-02 0. 3.22816782e-02 1.45125866e-01 4.87313010e-02
      3.36858816e-02 3.68566476e-02 9.89895537e-02 2.00378820e-01
      7.23289967e-01 3.73254716e-01 3.70156974e-01 0. 0. 0. 0. 0. 0. 0.
      0. 0. 1.43058628e-01 0. 0. 0. 1.22500360e-01 1.70139387e-01 0.
      2.30776578e-01 1.40300533e-02 1.00514159e-01 3.37512940e-02
      2.33308375e-02 2.55269092e-02 6.85601532e-02 1.38782337e-01
      5.00950515e-01 2.58516163e-01 2.56370664e-01 5.44958524e-02
      2.10795961e-02 1.33319069e-02 6.21668696e-02 1.08579561e-01
      9.95627865e-02 4.22375277e-02 3.07959653e-02 2.46227365e-02
      9.90823880e-02 0. 0. 0. 8.48437324e-02 1.17838517e-01 0.
      1.59835830e-01 9.71721299e-03 6.16584793e-02 8.51282701e-02
      9.99892969e-03 6.81965798e-02 4.44030732e-01 4.80688736e-02
      4.99964058e-01 9.97030884e-02 1.25990510e-01 5.67704402e-02
      2.19594315e-02 1.38883628e-02 6.47616312e-02 1.13111533e-01
      1.03718415e-01 4.40004691e-02 3.20813507e-02 2.56504584e-02
      3.72254997e-02 2.86839735e-02 4.92483526e-02 3.82542536e-02
      3.81440431e-01 3.42712067e-02 6.51768222e-02 4.85771149e-02
      7.76383141e-03 6.42320290e-02 8.86814147e-02 1.04162721e-02
      7.10430220e-02 4.62564021e-01 5.00752069e-02 5.20831883e-01
      1.03864573e-01 1.31249204e-01 2.70065293e-02 2.74492875e-02
      3.66288573e-02 2.03888655e-01 4.32505578e-01 1.54164076e-01
      1.29543513e-01 1.98318455e-02 0. 3.09488829e-02 2.38475502e-02
      4.09445576e-02 3.18041816e-02 3.17125529e-01 2.84927171e-02
      5.41873164e-02 4.03864980e-02 6.45476673e-03 1.12264708e-01
      2.28210464e-02 2.09160939e-01 1.63383156e-01 4.21836257e-01
      3.86566579e-01 2.88665928e-02 2.84627173e-02 2.08319798e-02
      2.24529412e-02 2.28210464e-02 3.04528419e-02 1.69510871e-01
      3.59580547e-01 1.28170371e-01 1.07701100e-01 1.64879858e-02 0.
      2.35659033e-01 1.83166161e-01 8.12084153e-02 1.52459234e-01
      3.77763242e-01 6.28170222e-02 1.36594445e-01 6.35240972e-02
      1.48707526e-02 9.49153751e-02 1.92942936e-02 1.76837310e-01
      1.38134018e-01 3.56645912e-01 3.26826781e-01 2.44055633e-02
      2.40641031e-02 1.76126156e-02 1.26538679e-01 2.68704802e-01
      5.85733540e-02 2.64212698e-01 3.90731126e-01 2.38193706e-01
      1.70838945e-02 1.66353896e-01 3.18559036e-02 1.99240401e-01
      1.54859751e-01 6.86585084e-02 1.28898263e-01 3.19383919e-01
      5.31093106e-02 1.15485214e-01 5.37071154e-02 1.25726340e-02
      7.83240199e-02 1.29167199e-01 2.51827568e-01 1.07070193e-01
      2.76117455e-02 7.71771744e-03 8.62867013e-03 0. 1.09145008e-02
      1.59991547e-01 3.39741945e-01 7.40583166e-02 3.34062248e-01
      4.94028211e-01 3.01164657e-01 2.16003414e-02 2.10332662e-01
      4.02776077e-02 3.22056592e-01 1.69195399e-01 1.26335725e-01
      2.20153838e-01 7.85507113e-02 0. 0. 0. 6.89997664e-03
      9.90304351e-02 1.63314968e-01 3.18402886e-01 1.35376200e-01
      3.49114276e-02 9.75804031e-03 1.09098209e-02 0. 1.37999533e-02 0.
      0. 0. 0. 0. 0. 0. 0. 0.</_>
    <_>
      3.71864080e-01 5.15311360e-02 4.55936417e-03 7.82358833e-03
      2.14930512e-02 1.05841001e-02 2.67385859e-02 2.63079792e-01
      6.74972087e-02 1.47518843e-01 0. 9.24451090e-03 1.27350643e-01
      2.43656248e-01 9.55478773e-02 8.66903290e-02 1.69900179e-01
      1.52410030e-01 2.47553401e-02 3.65609229e-02 2.11131558e-01
      2.46246785e-01 2.26950496e-01 1.01608582e-01 1.80604994e-01
      3.82630199e-01 7.91053846e-02 1.58977732e-01 8.16003755e-02
      7.31653273e-02 3.07867937e-02 1.05935961e-01 1.84812576e-01
      3.61213088e-01 9.58641320e-02 2.00494468e-01 7.55129680e-02 0.
      4.73214453e-03 6.51891306e-02 1.24724448e-01 4.89097089e-02
      4.43756506e-02 8.69696811e-02 7.80167058e-02 3.69110614e-01
      1.56804293e-01 1.07114185e-02 4.57939990e-02 1.34559229e-01
      7.83775225e-02 3.53180021e-02 9.32390690e-02 3.42840999e-01
      8.13786238e-02 4.17701676e-02 3.74523774e-02 1.57593582e-02
      5.42272367e-02 9.46031436e-02 1.84900269e-01 4.90715988e-02
      1.02630503e-01 6.92555785e-01 2.24924251e-01 4.88287359e-02
      1.23006233e-03 1.99375805e-02 4.92024934e-03 1.17124822e-02
      5.74082024e-02 1.90218970e-01 3.30035239e-01 1.40204415e-01
      9.57746897e-03 4.09460813e-02 1.20314300e-01 7.00801983e-02
      3.15791108e-02 8.33684430e-02 3.06546599e-01 1.97792947e-01
      7.29138404e-02 5.21776974e-02 2.31473688e-02 5.90237929e-03
      1.58828702e-02 8.71080253e-03 3.92436050e-02 1.95483249e-02
      6.19239271e-01 2.01112941e-01 4.36595492e-02 1.09984353e-03
      1.78269166e-02 4.39937413e-03 1.04725566e-02 5.13307601e-02
      1.70081705e-01 3.88234198e-01 2.73536146e-01 5.09469956e-02
      4.12888341e-02 5.38683422e-02 2.06817370e-02 6.55943006e-02
      2.19968706e-03 5.53025231e-02 3.23110461e-01 1.19110532e-01
      8.52364078e-02 3.78130637e-02 9.64200497e-03 2.59459261e-02
      1.42297875e-02 6.41075373e-02 3.19337398e-02 3.55280697e-01
      1.62064001e-01 3.28153335e-02 2.09385529e-02 2.34456249e-02 0.
      1.49459718e-02 1.94272678e-02 6.13052808e-02 6.34211302e-01
      4.46842968e-01 8.32259580e-02 6.74485862e-02 8.79982039e-02
      3.37852575e-02 1.07153490e-01 3.59336310e-03 9.03410539e-02
      8.55654031e-02 8.48266408e-02 1.12681441e-01 1.14311367e-01
      4.76470254e-02 1.56014394e-02 1.08265178e-02 3.81998084e-02
      1.46371469e-01 4.62958395e-01 2.11181998e-01 4.27609310e-02
      2.72845645e-02 3.05514727e-02 0. 1.94757637e-02 2.53152419e-02
      7.98855498e-02 5.33490837e-01 5.18813916e-02 2.25752927e-02
      2.22602598e-02 6.36879541e-03 4.31698840e-03 3.12587731e-02
      6.92357644e-02 2.13886589e-01 1.11498378e-01 1.10535711e-01
      1.46832690e-01 1.48956612e-01 6.20877817e-02 2.03298889e-02
      1.41077954e-02 4.97773215e-02 1.90733418e-01 2.39985138e-01
      3.94302070e-01 1.64259821e-01 3.31097911e-03 6.10602945e-02
      7.62244640e-03 1.34281777e-02 7.02364696e-03 1.85685948e-01
      4.92961705e-01 4.79399823e-02 2.08602548e-02 2.05691550e-02
      5.88496076e-03 3.98902828e-03 2.88840551e-02 6.39759451e-02
      1.97637707e-01 1.52949005e-01 2.64416318e-02 4.85652965e-03
      7.04847369e-03 1.45604759e-02 6.01983443e-02 5.49219064e-02
      9.98804048e-02 9.07778963e-02 2.21753553e-01 3.64347070e-01
      1.51781067e-01 3.05944518e-03 5.64215668e-02 7.04337191e-03
      1.24080433e-02 6.49006339e-03 1.71579465e-01 3.04084599e-01
      7.01481402e-02 1.29709288e-01 1.41935647e-01 6.44632503e-02
      8.17374140e-02 0. 1.54524669e-01 5.03634155e-01 2.26955581e-02
      3.35188508e-02 1.93564236e-01 2.25757673e-01 2.08066940e-01
      9.31541771e-02 1.65577650e-01 3.50793213e-01 7.25233778e-02
      1.45749897e-01 7.48107731e-02 6.70775697e-02 2.82251611e-02
      9.71214995e-02 1.69435143e-01 3.31158161e-01 8.78877044e-02
      1.83812216e-01 1.00122355e-02 0. 3.55231692e-03 0. 2.05284342e-01
      4.29870784e-01 1.63554519e-01 2.84621697e-02 0. 6.68597892e-02
      1.47737205e-01 9.43899155e-02 1.01037838e-01 2.31521547e-01
      2.92488098e-01 2.01590091e-01 1.80894975e-02 2.52527818e-02
      8.95316228e-02 4.59549502e-02 4.12045792e-02 1.73382238e-02
      5.96600436e-02 1.04081050e-01 2.03424677e-01 5.39878868e-02
      1.12912640e-01 7.61940122e-01 2.47458503e-01 5.37206903e-02
      1.35329738e-03 2.19350476e-02 5.41318953e-03 1.28859095e-02
      6.31596968e-02 2.09276244e-01 4.10708040e-02 9.07523930e-02
      5.79820760e-02 6.20657839e-02 1.42219648e-01 1.79670349e-01
      1.23833284e-01 1.11120623e-02 1.55123435e-02 2.27379143e-01
      1.49029836e-01 4.12638299e-02 4.26157154e-02 5.91203161e-02
      1.08108521e-01 1.79791585e-01 9.82979387e-02 5.79133183e-02
      6.80990338e-01 2.21168086e-01 4.80133109e-02 1.20952073e-03
      1.96046308e-02 4.83808294e-03 1.15168886e-02 5.64495027e-02
      1.87042385e-01 4.26949203e-01 3.00813377e-01 5.60274720e-02
      4.54061888e-02 5.92401363e-02 2.27441359e-02 7.21354187e-02
      2.41904147e-03 6.08173348e-02 2.03222007e-01 1.33196652e-01
      3.68798934e-02 3.80881503e-02 5.28392717e-02 9.66228917e-02
      1.60690218e-01 8.78546014e-02 5.17605096e-02 8.86890516e-02
      7.85875767e-02 4.01367284e-02 6.03187345e-02 1.58086613e-01
      1.49888517e-02 1.96095221e-02 1.66148972e-02 6.51346846e-03
      6.83184624e-01 4.81347829e-01 8.96526054e-02 7.26569071e-02
      9.47933570e-02 3.63941267e-02 1.15427800e-01 3.87083972e-03
      9.73171219e-02 9.21726972e-02 9.13768858e-02 1.21382609e-01
      1.23138405e-01 5.13262935e-02 1.68061703e-02 1.16625335e-02
      4.11495678e-02 1.57674164e-01 1.41916171e-01 1.25752255e-01
      6.42249584e-02 9.65192840e-02 2.52962977e-01 2.39844751e-02
      3.13782617e-02 2.65864003e-02 1.04225548e-02 4.34925146e-02
      4.28386889e-02 2.27599621e-01 6.81110770e-02 3.22021134e-02
      1.18116410e-02 2.16324646e-02 1.10843983e-02 3.28979008e-02
      1.03375532e-01 1.02482997e-01 1.36135668e-01 1.38104871e-01
      5.75645827e-02 1.88488234e-02 1.30800186e-02 4.61509600e-02
      1.76838160e-01 2.22501814e-01 3.65576506e-01 1.52293220e-01
      3.06976866e-03 5.66119477e-02 7.06713833e-03 1.24499118e-02
      6.51196251e-03 1.72158420e-01 4.87786718e-02 4.80453819e-02
      2.55262494e-01 7.63894171e-02 3.61160189e-02 1.32472487e-02
      2.42617130e-02 1.24316160e-02 3.68963741e-02 6.67401433e-01
      2.45791718e-01 1.63217589e-01 3.36983800e-02 5.65517321e-02
      6.70443848e-02 4.39744741e-02 6.57303333e-02 1.94136620e-01
      1.62427917e-01 2.66873449e-01 1.11175135e-01 2.24095304e-03
      4.13271263e-02 5.15906140e-03 9.08852462e-03 4.75377915e-03
      1.25676870e-01 2.22732961e-01 5.13814352e-02 9.50082093e-02
      1.03963658e-01 4.72174175e-02 5.98702319e-02 0. 1.13184750e-01
      3.68897080e-01 4.87207800e-01 1.79429710e-01 1.19150005e-01
      2.46000569e-02 4.12831679e-02 4.89428826e-02 3.21016796e-02
      4.79836129e-02 1.41721115e-01 5.31518817e-01 1.42843813e-01
      1.06608875e-01 3.39358076e-02 4.25898619e-02 1.01463469e-02
      2.00436916e-03 3.54325771e-03 1.27861574e-01 9.34671145e-03 0.
      3.31619056e-03 0. 1.91638872e-01 4.01296824e-01 1.52682871e-01
      2.65702587e-02 0. 6.24155514e-02 1.37916967e-01 8.81157145e-02
      9.43217427e-02 2.16132060e-01 2.73046106e-01 1.88190192e-01
      1.68870687e-02 2.35742014e-02 1.97208878e-02 4.21252735e-02
      2.30741259e-02 1.90223865e-02 7.68727660e-02 2.86486357e-01
      1.56737670e-01 2.28376035e-02 1.13856522e-02 5.83608806e-01
      2.65186340e-01 1.04057360e-02 2.05661426e-03 2.75923731e-03
      9.85118076e-02 1.63541630e-01 5.13557158e-02 1.20942503e-01
      5.70857562e-02 1.26139939e-01 8.05913284e-02 8.62674117e-02
      1.97676092e-01 2.49730125e-01 1.72120228e-01 1.54450461e-02
      2.15611514e-02 3.16042274e-01 2.07141817e-01 5.73540479e-02
      5.92330806e-02 8.21733996e-02 1.50263831e-01 2.49898627e-01
      1.36627764e-01 8.04957598e-02 5.33773184e-01 2.42541507e-01
      9.51716769e-03 1.88099558e-03 2.52362038e-03 9.00996700e-02
      1.49576455e-01 4.69703414e-02 1.10614970e-01 5.90272658e-02
      1.29210368e-01 1.01578191e-01 1.01601638e-01 1.25767961e-01
      3.00724983e-01 1.59517154e-01 6.35114089e-02 5.72728701e-02
      3.87531161e-01 2.53997386e-01 7.03275576e-02 7.26316348e-02
      1.00761063e-01 1.84253573e-01 3.06425810e-01 1.67533025e-01
      9.87039357e-02 1.69124261e-01 1.49861410e-01 7.65381381e-02
      1.15023911e-01 3.01460892e-01 2.85827667e-02 3.73940840e-02
      3.16835307e-02 1.24207614e-02 7.23792613e-02 1.58437803e-01
      1.24555230e-01 1.24583974e-01 1.54216737e-01 3.68749112e-01
      1.95600018e-01 7.78777227e-02 7.02280179e-02 1.99207827e-01
      1.58347920e-01 7.69016892e-02 1.01367682e-01 1.51491880e-01
      1.54411972e-01 5.40796518e-02 1.82275787e-01 2.43361592e-02
      2.48712122e-01 2.20384404e-01 1.12556070e-01 1.69152796e-01
      4.43324804e-01 4.20334749e-02 5.49912937e-02 4.65934239e-02
      1.82658248e-02 7.62218684e-02 7.50760213e-02 3.98874819e-01
      1.19366601e-01 5.64351231e-02 2.07002368e-02 3.79115082e-02
      1.94257237e-02 5.76545112e-02 2.92952657e-01 2.32864559e-01
      1.13090709e-01 1.49070099e-01 2.22782165e-01 2.27076411e-01
      7.95288906e-02 2.68052578e-01 3.57884653e-02 2.73495078e-01
      1.30750090e-01 4.83266786e-02 2.27071475e-02 1.06182592e-02
      1.59033965e-02 6.43563643e-03 6.78375689e-03 0. 5.45627736e-02
      5.37425280e-02 2.85531133e-01 8.54475573e-02 4.03986014e-02
      1.48180872e-02 2.71386299e-02 1.39057375e-02 4.12714891e-02
      7.46540904e-01 2.74937332e-01 1.82571679e-01 3.76942828e-02
      6.32575527e-02 7.49944076e-02 4.91889007e-02 7.35245347e-02
      2.17157051e-01 1.95779115e-01 9.35963318e-02 3.45942415e-02
      1.62547175e-02 7.60098966e-03 1.13843111e-02 4.60689515e-03
      4.85609425e-03 0. 2.16620490e-01 4.84239161e-02 1.05792239e-01
      8.36850852e-02 6.31593615e-02 7.32387677e-02 1.04891859e-01
      1.18089635e-02 1.78333804e-01 5.17117798e-01 1.90445006e-01
      1.26464695e-01 2.61102691e-02 4.38175648e-02 5.19475117e-02
      3.40724215e-02 5.09293526e-02 1.50421456e-01 5.64149082e-01
      1.51613086e-01 1.13153651e-01 3.60191464e-02 4.52044792e-02
      1.07692368e-02 2.12741853e-03 3.76078044e-03 1.35711074e-01
      1.50049791e-01 3.35425287e-02 7.32807145e-02 5.79674132e-02
      4.37495522e-02 5.07314056e-02 7.26570338e-02 8.17989372e-03
      1.23529173e-01 4.19709146e-01 9.82842147e-02 1.67362362e-01
      3.70508954e-02 0. 0. 4.25483705e-03 1.68187218e-03 3.83525854e-03
      1.60892755e-02 3.43678817e-02 1.88250132e-02 1.55194048e-02
      6.27166107e-02 2.33729750e-01 1.27874345e-01 1.86320469e-02
      9.28897876e-03 4.76136923e-01 2.16352135e-01 8.48951377e-03
      1.67788751e-03 2.25112238e-03 8.03708062e-02 1.33425355e-01
      4.18985337e-02 9.86708775e-02 3.33252475e-02 1.67788751e-03
      2.70551234e-03 3.09387175e-03 6.47321418e-02 1.85426384e-01
      1.18953899e-01 4.88571674e-02 4.45338003e-02 3.47458750e-01
      5.25855064e-01 1.84900060e-01 1.87977493e-01 1.27070427e-01
      1.20566189e-01 6.55208677e-02 2.07718596e-01 1.00732833e-01
      4.64126110e-01 2.10894525e-01 8.27536080e-03 1.63556193e-03
      2.19433662e-03 7.83434063e-02 1.30059615e-01 4.08416204e-02
      9.61818472e-02 5.13253473e-02 1.12350903e-01 8.83242041e-02
      8.83445889e-02 1.09357670e-01 2.61486173e-01 1.38703242e-01
      5.52244000e-02 4.97998632e-02 3.38693917e-01 5.12590110e-01
      1.80235863e-01 1.83235660e-01 1.23865016e-01 1.17524840e-01
      6.38680682e-02 2.02478781e-01 9.81917977e-02 1.17031280e-02
      2.93489695e-02 1.08900573e-02 4.43563014e-02 8.37517977e-02
      1.60173327e-01 8.33334103e-02 1.63556193e-03 0. 9.79832634e-02
      2.14484841e-01 1.68616369e-01 1.68655291e-01 2.08770558e-01
      4.99193281e-01 2.64793098e-01 1.05426796e-01 9.50710252e-02
      2.69677162e-01 2.14363158e-01 1.04105495e-01 1.37226269e-01
      2.05081806e-01 2.09034875e-01 7.32102096e-02 2.46755436e-01
      3.29450220e-02 2.23419964e-02 5.60289994e-02 2.07897928e-02
      8.46789256e-02 1.59887373e-01 3.05780798e-01 1.59088641e-01
      3.12238908e-03 0. 1.03552997e-01 8.99928138e-02 6.32425994e-02
      9.91694704e-02 1.96484849e-02 5.08258939e-02 7.35340044e-02
      4.07942571e-02 6.86658695e-02 4.02480930e-01 3.19927305e-01
      1.55372739e-01 2.04803988e-01 3.06075305e-01 3.11975062e-01
      1.09262921e-01 3.68271321e-01 4.91689518e-02 3.75748634e-01
      1.79634556e-01 6.63949177e-02 3.11968289e-02 1.45881828e-02
      2.18493138e-02 8.84177350e-03 9.32004862e-03 0. 1.54548153e-01
      1.34310201e-01 9.43867117e-02 1.48005933e-01 2.93244720e-02
      7.58553445e-02 1.09746173e-01 6.08835816e-02 1.02480702e-01
      1.45881828e-02 3.94803584e-02 1.41296640e-01 8.68652016e-02
      1.06877759e-01 4.83507141e-02 1.17890313e-02 7.51406280e-03
      6.59026904e-03 4.42681044e-01 2.11632997e-01 7.82219023e-02
      3.67539451e-02 1.71867870e-02 2.57413499e-02 1.04167657e-02
      1.09802363e-02 0. 4.89805996e-01 1.09492525e-01 2.39209473e-01
      1.89222425e-01 1.42811209e-01 1.65601999e-01 2.37173602e-01
      2.67015416e-02 4.03235018e-01 1.71867870e-02 4.65130284e-02
      1.66465923e-01 1.02338575e-01 1.25915974e-01 5.69634661e-02
      1.38890212e-02 8.85254890e-03 7.76419928e-03 1.58150837e-01
      1.59021556e-01 1.17007285e-01 1.03935130e-01 3.43735740e-02
      3.89059894e-02 1.92207880e-02 1.87120717e-02 0. 1.71588913e-01
      3.83574404e-02 8.37999061e-02 6.62884340e-02 5.00296503e-02
      5.80137223e-02 8.30866992e-02 9.35408846e-03 1.41261354e-01
      4.79956955e-01 1.12392567e-01 1.91386640e-01 4.23694216e-02 0. 0.
      4.86560445e-03 1.92329905e-03 4.38579684e-03 5.54034300e-02
      5.57084605e-02 4.09900136e-02 3.64105739e-02 1.20417569e-02
      1.36295529e-02 6.73342962e-03 6.55521639e-03 0. 7.95148730e-01
      3.71136814e-02 1.21640111e-03 0. 8.60125467e-04 0. 3.64920311e-03
      3.10122641e-03 1.14763537e-02 3.96250039e-02 1.99507293e-03
      3.21695837e-03 3.67873255e-03 7.69690126e-02 2.20479101e-01
      1.41440764e-01 5.80930524e-02 5.29524051e-02 4.13141847e-01
      6.25261903e-01 2.19853297e-01 2.23512486e-01 1.51091635e-01
      1.43357843e-01 7.79068321e-02 2.46985406e-01 1.19775221e-01
      1.07066846e-02 5.98521857e-03 9.52593330e-03 2.32871603e-02
      3.30122784e-02 1.76133551e-02 4.95858118e-02 2.01512948e-02
      6.50019152e-03 1.53154889e-02 0. 1.14605827e-02 9.66395065e-03
      4.03782874e-02 2.68990964e-01 2.24555135e-01 5.44032641e-02
      5.64291840e-03 3.45315933e-01 5.22612035e-01 1.83759764e-01
      1.86818212e-01 1.26286775e-01 1.19822644e-01 6.51167855e-02
      2.06437558e-01 1.00111604e-01 1.19319437e-02 2.99227890e-02
      1.11029753e-02 4.52235378e-02 8.53892863e-02 1.63304985e-01
      8.49627107e-02 1.66753982e-03 0. 1.28011294e-02 0. 9.57908761e-03
      8.07741098e-03 3.37493457e-02 2.24830449e-01 1.87689707e-01
      4.54718247e-02 4.71651461e-03 0. 4.01596772e-03 0. 1.25594540e-02
      1.03454389e-01 5.38172424e-01 1.32515565e-01 0. 0. 1.59101821e-02
      3.98993678e-02 1.48048261e-02 6.03015497e-02 1.13858990e-01
      2.17752606e-01 1.13290191e-01 2.22351542e-03 0. 7.37421513e-02
      6.40856773e-02 4.50363159e-02 7.06205517e-02 1.39920777e-02
      3.61941308e-02 5.23650311e-02 2.90504042e-02 4.88983355e-02 0.
      5.35493437e-03 0. 1.67469103e-02 1.37947187e-01 7.17604876e-01
      1.76697671e-01 0. 0. 5.96631784e-03 1.25255566e-02 5.79821877e-03
      1.51665872e-02 1.25828817e-01 5.52108467e-01 9.51159745e-02
      3.43972258e-02 1.32703148e-02 1.15624994e-01 1.00483991e-01
      7.06152916e-02 1.10730439e-01 2.19390634e-02 5.67510687e-02
      8.21064487e-02 4.55499701e-02 7.66707957e-02 1.09141292e-02
      2.95371767e-02 1.05710894e-01 6.49880841e-02 7.99604505e-02
      3.61735225e-02 8.81994795e-03 5.62163582e-03 4.93050087e-03
      9.35496762e-03 1.96396131e-02 9.09139402e-03 2.37806514e-02
      1.97294965e-01 8.65685880e-01 1.49138361e-01 5.39335907e-02
      2.08073668e-02 3.66248228e-02 4.01212126e-02 5.48925847e-02
      1.82778928e-02 2.47138157e-01 1.65813938e-01 4.68672886e-02
      6.54945374e-02 1.62781216e-02 1.69422347e-02 4.58511896e-02
      1.64097264e-01 1.00882389e-01 1.24124303e-01 5.61529249e-02
      1.36913927e-02 8.72658473e-03 7.65372161e-03 1.55900493e-01
      1.56758830e-01 1.15342379e-01 1.02456227e-01 3.38844694e-02
      3.83523926e-02 1.89472921e-02 1.84458159e-02 0. 5.68534918e-02
      6.22810125e-02 8.52109268e-02 2.83731613e-02 3.83637816e-01
      2.57396489e-01 7.27530867e-02 1.01668559e-01 2.52688751e-02
      5.89636147e-01 3.62906486e-01 1.35850132e-01 6.45471215e-02
      5.09072915e-02 3.37449349e-02 3.82735431e-02 9.92153957e-02
      3.22051436e-01 5.75803928e-02 5.78974113e-02 4.26006317e-02
      3.78412530e-02 1.25149135e-02 1.41650988e-02 6.99800625e-03
      6.81279041e-03 0. 8.26392472e-01 3.85719873e-02 1.26419705e-03 0.
      8.93922348e-04 0. 3.79259116e-03 3.22308298e-03 1.19272936e-02
      2.17776611e-01 1.34036124e-01 5.01749814e-02 2.38398798e-02
      1.88021343e-02 1.24633778e-02 1.41359773e-02 3.66442837e-02
      1.18946701e-01 4.17588234e-01 4.42429334e-02 2.02271529e-02
      3.19701321e-02 8.78803879e-02 7.17117712e-02 8.14460889e-02
      7.54860938e-02 1.31937161e-01 2.67898403e-02 1.49759753e-02
      2.38354094e-02 5.82682043e-02 8.26020017e-02 4.40714359e-02
      1.24071643e-01 5.04217669e-02 1.62645206e-02 3.83218043e-02 0.
      2.86762137e-02 2.41807532e-02 1.01032950e-01 6.73058450e-01
      5.61872959e-01 1.36125684e-01 1.41194854e-02 2.75144055e-02
      1.49759753e-02 2.21004877e-02 3.68527882e-02 3.29129785e-01
      7.37535283e-02 1.57860648e-02 8.04934464e-03 0. 6.69746008e-03
      1.30413370e-02 3.81991789e-02 1.05648004e-01 8.48344937e-02
      1.69974819e-01 4.13563922e-02 8.04934464e-03 0. 1.98141132e-02 0.
      1.48269050e-02 1.25025474e-02 5.22386208e-02 3.48001778e-01
      2.90513813e-01 7.03831539e-02 7.30041461e-03 0. 6.21607900e-03 0.
      1.94400381e-02 1.60130933e-01 8.33005309e-01 2.05113009e-01 0. 0.
      3.46289086e-03 6.74296357e-03 1.97507106e-02 5.46248145e-02
      4.38632816e-02 8.78846943e-02 2.13831328e-02 4.16187663e-03 0.
      8.08007829e-03 2.58108648e-03 6.52968930e-03 3.15993167e-02
      7.73378909e-02 5.13515882e-02 2.55450066e-02 5.16217295e-03 0. 0.
      5.30338474e-03 0. 1.65856965e-02 1.36619240e-01 7.10696816e-01
      1.74996689e-01 0. 0. 5.90888318e-03 1.24049792e-02 5.74240182e-03
      1.50205856e-02 1.24617517e-01 5.46793580e-01 9.42003429e-02
      3.40660997e-02 1.31425671e-02 6.89369719e-03 2.20211083e-03
      5.57094812e-03 2.69596539e-02 6.59825280e-02 4.38117385e-02
      2.17942856e-02 4.40422166e-03 0. 1.19775794e-02 0. 1.68507528e-02
      5.31636551e-03 1.57570224e-02 2.08292782e-01 2.61477649e-01
      1.01571288e-02 3.11425491e-03 7.12653762e-03 1.49612958e-02
      6.92574913e-03 1.81159060e-02 1.50297686e-01 6.59472346e-01
      1.13612376e-01 4.10861671e-02 1.58508811e-02 2.79004890e-02
      3.05640101e-02 4.18167189e-02 1.39239486e-02 1.88267812e-01
      1.26315698e-01 3.57031152e-02 4.98931967e-02 1.24005396e-02
      1.44458208e-02 0. 2.03232188e-02 6.41191844e-03 1.90041009e-02
      2.51216054e-01 3.15360814e-01 1.22502269e-02 3.75601510e-03
      2.86213383e-02 6.39626291e-03 8.39870516e-03 2.16887798e-02
      4.63681109e-02 5.24747133e-01 1.49583310e-01 1.32795181e-02
      5.31351678e-02 3.04642469e-02 3.33725177e-02 4.56592292e-02
      1.52034108e-02 2.05567613e-01 1.37922749e-01 3.89838479e-02
      5.44778518e-02 1.35400165e-02 3.15949291e-01 1.94458976e-01
      7.27936253e-02 3.45867872e-02 2.72780489e-02 1.80818103e-02
      2.05084085e-02 5.31633534e-02 1.72567308e-01 3.12513337e-02
      6.98401127e-03 9.17045586e-03 2.36817487e-02 5.06288446e-02
      5.72965801e-01 1.63328409e-01 1.44997649e-02 5.80177233e-02
      4.84725296e-01 9.29385424e-02 9.17045586e-03 3.30663659e-02
      2.35170797e-02 3.10872674e-01 1.26231164e-01 9.90702957e-02
      1.44796789e-01 2.91288584e-01 1.79280937e-01 6.71118870e-02
      3.18871923e-02 2.51489226e-02 1.66704766e-02 1.89076718e-02
      4.90138084e-02 1.59097970e-01 5.58547974e-01 5.91774359e-02
      2.70549674e-02 4.27618697e-02 1.17545009e-01 9.59185660e-02
      1.08938769e-01 1.00966938e-01 1.76473454e-01 4.46891189e-01
      8.56844336e-02 8.45467765e-03 3.04854475e-02 2.16815080e-02
      2.86608219e-01 1.16378471e-01 9.13375914e-02 1.33495018e-01
      1.80034414e-01 2.30149314e-01 9.83224884e-02 1.57132909e-01
      5.66784926e-02 1.10235503e-02 1.20447110e-02 1.46004725e-02
      2.09318344e-02</_>
    <_>
      0. 0. 0. 0. 0. 0. 0. 0. 0. 0. 0. 0. 0. 5.51315164e-03 0. 0. 0. 0.
      0. 0. 0. 0. 0. 0. 0. 0. 0. 1.56188831e-01 3.77443612e-01
      9.07578945e-01 6.66172802e-02 5.03027849e-02 2.10448392e-02
      2.33903192e-02 3.71113718e-02 8.71705823e-03 0. 0. 0. 0.
      1.89070648e-03 0. 0. 0. 0. 0. 2.88603809e-02 2.51719709e-02
      8.95169601e-02 1.02666453e-01 3.23855765e-02 1.10246185e-02
      1.60710048e-02 0. 5.35641424e-02 1.29442304e-01 3.11249435e-01
      2.28460487e-02 1.72510780e-02 7.21721770e-03 8.02158751e-03
      1.27271507e-02 2.98946956e-03 1.03988852e-02 1.79847367e-02
      7.32874334e-01 5.66261053e-01 1.41802989e-02 4.25333269e-02
      2.23933551e-02 1.50064332e-02 3.89779103e-03 0. 2.41880026e-02
      2.10967325e-02 7.50245228e-02 8.60451758e-02 2.71424819e-02
      9.23977699e-03 1.34691745e-02 0. 6.40400825e-03 0. 4.65374291e-02
      6.20218813e-02 9.30749848e-02 4.75182571e-02 1.42834699e-02
      2.44124439e-02 4.03997535e-03 8.71534832e-03 1.50730815e-02
      6.14224970e-01 4.74585682e-01 1.18845655e-02 3.56473550e-02
      1.87679622e-02 1.25769526e-02 3.26675456e-03 1.75876040e-02
      1.53508624e-02 1.13158263e-02 3.03624898e-01 4.53802884e-01
      2.50613689e-01 1.07001076e-02 2.38962080e-02 1.05916411e-02
      6.51244726e-03 0. 4.73254435e-02 6.30720928e-02 9.46510136e-02
      4.83228788e-02 1.45253316e-02 2.48258188e-02 4.10838425e-03 0.
      1.98163223e-02 7.42837507e-03 1.37681561e-02 1.13955207e-01
      5.71277924e-02 2.19490621e-02 6.70976266e-02 0. 1.78854149e-02
      1.56107983e-02 1.15074366e-02 3.08766156e-01 4.61487085e-01
      2.54857332e-01 1.08812917e-02 2.43008416e-02 1.07709887e-02
      2.88539659e-02 9.74387396e-03 3.56484801e-02 3.40729579e-02
      1.45599082e-01 5.77141643e-01 4.76587772e-01 8.05720408e-03
      9.96621139e-03 0. 2.19298974e-02 8.22067354e-03 1.52366450e-02
      1.26109481e-01 6.32209480e-02 2.42901128e-02 7.42541477e-02 0.
      1.87248010e-02 0. 0. 0. 3.56662902e-03 1.81863103e-02 0. 0. 0.
      3.19314823e-02 1.07831396e-02 3.94506902e-02 3.77071239e-02
      1.61128446e-01 6.38698578e-01 5.27419806e-01 8.91657267e-03
      1.10291913e-02 2.35116109e-02 1.56455487e-02 2.52198754e-03
      1.98762957e-02 5.89628965e-02 8.45326409e-02 4.64711338e-01
      1.56926692e-01 6.10894188e-02 3.66461799e-02 0. 0. 0.
      6.98022451e-03 3.55923027e-02 0. 0. 0. 0. 0. 0. 0. 0. 0. 0. 0. 0.
      4.60144095e-02 3.06197964e-02 4.93576378e-03 3.88997607e-02
      1.15395874e-01 1.65438235e-01 9.09483314e-01 3.07120144e-01
      1.19557671e-01 3.49011226e-03 0. 0. 0. 0. 9.95026305e-02
      6.67675883e-02 0. 4.37657833e-02 0. 0. 0. 0. 0. 0. 0. 0. 0.
      5.41589037e-02 1.30879596e-01 3.14705461e-01 2.30997242e-02
      1.74426287e-02 7.29735568e-03 8.11065733e-03 1.28684696e-02
      3.02266376e-03 1.00084998e-01 3.18170339e-02 8.61799940e-02
      5.14741056e-03 0. 0. 1.75730921e-02 1.79587938e-02 4.22948562e-02
      3.49918664e-01 8.47123921e-01 1.32590339e-01 2.01088339e-02
      3.82340071e-03 1.46278003e-02 1.55632012e-02 0. 1.85965151e-02
      3.17322612e-02 7.66837075e-02 1.84389189e-01 1.35343671e-02
      1.02198161e-02 4.27559623e-03 4.75211767e-03 7.53976917e-03
      1.77100988e-03 6.16046740e-03 1.06544485e-02 4.34166580e-01
      3.35462153e-01 8.40063766e-03 2.51974277e-02 1.32661844e-02
      8.89005233e-03 2.30911421e-03 2.05020964e-01 4.96338636e-01
      7.76860490e-02 1.17819728e-02 2.24017003e-03 8.57057888e-03
      9.11864080e-03 0. 1.08958902e-02 7.84059521e-03 3.47992301e-01
      4.88620996e-01 3.31199467e-02 2.08422057e-02 8.03247467e-03
      1.58403930e-03 6.07176730e-03 1.36488061e-02 5.96940052e-03
      1.03240004e-02 4.20700908e-01 3.25057805e-01 8.14009178e-03
      2.44159289e-02 1.28547335e-02 8.61432776e-03 2.23749713e-03
      1.20462719e-02 1.05142612e-02 7.75054470e-03 2.07961679e-01
      3.10823053e-01 1.71652749e-01 7.32882041e-03 1.63672213e-02
      7.25452881e-03 7.59741850e-03 3.37199301e-01 4.73466426e-01
      3.20927314e-02 2.01957840e-02 7.78334774e-03 1.53491029e-03
      5.88345155e-03 1.32254884e-02 7.56869987e-02 2.64102221e-01
      2.79740006e-01 1.12228364e-01 1.29025400e-01 1.34239778e-01
      3.18409726e-02 5.25287502e-02 4.32951674e-02 1.26610585e-02
      1.10508613e-02 8.14609695e-03 2.18575105e-01 3.26686054e-01
      1.80413127e-01 7.70285027e-03 1.72025301e-02 7.62476679e-03
      2.04256792e-02 6.89767441e-03 2.52355076e-02 2.41201967e-02
      1.03069380e-01 4.08557713e-01 3.37375790e-01 5.70368301e-03
      7.05506653e-03 7.95497224e-02 2.77580798e-01 2.94016659e-01
      1.17955990e-01 1.35610268e-01 1.41090766e-01 3.34659927e-02
      5.52095771e-02 4.55047563e-02 1.14775822e-02 5.10152942e-03
      3.17046314e-01 2.18702346e-01 3.17394614e-01 2.03405827e-01
      1.04860943e-02 7.41843740e-03 0. 1.78758428e-02 6.03660429e-03
      2.20852382e-02 2.11091563e-02 9.02027339e-02 3.57555479e-01
      2.95259535e-01 4.99166455e-03 6.17434829e-03 1.31622413e-02
      8.75867251e-03 1.41185592e-03 1.11271236e-02 3.30085382e-02
      4.73229587e-02 2.60154158e-01 8.78505111e-02 3.41990031e-02
      1.00447796e-02 4.46468079e-03 2.77467877e-01 1.91400662e-01
      2.77772695e-01 1.78013697e-01 9.17706452e-03 6.49235817e-03 0.
      1.27221718e-02 1.03770457e-02 0. 3.15700611e-03 9.98332980e-04
      6.46190867e-02 5.73840320e-01 3.63884896e-01 7.96070844e-02
      1.73031576e-02 1.15142018e-02 1.85603392e-03 1.46277808e-02
      4.33932133e-02 6.22110330e-02 3.42000127e-01 1.15488790e-01
      4.49582078e-02 1.31241418e-03 0. 0. 0. 0. 3.74167524e-02
      2.51071397e-02 0. 1.64575912e-02 1.67246405e-02 1.36417244e-02 0.
      4.15021833e-03 1.31241418e-03 8.49486217e-02 7.54373729e-01
      4.78365183e-01 1.04651928e-01 9.08921063e-02 3.53378337e-03 0.
      1.43917464e-02 6.56207092e-03 9.18301940e-02 9.12219435e-02
      1.17221214e-01 5.81922084e-02 6.64596632e-02 2.11275350e-02
      5.72262928e-02 3.41804652e-03 0. 0. 1.16690993e-02 1.19252177e-02
      2.80851480e-02 2.32357278e-01 5.62517583e-01 8.80442634e-02
      1.33529138e-02 2.53886124e-03 9.71333124e-03 1.03344675e-02 0.
      1.23486854e-02 1.42670423e-01 2.87176166e-02 2.69286893e-03
      4.25779959e-03 0. 2.00714613e-03 2.11260375e-02 0. 6.51631653e-02
      7.04632878e-01 7.75252730e-02 1.48356361e-02 1.41926657e-03
      2.53886124e-03 2.00714613e-03 2.69286893e-03 7.43137579e-03
      2.88726062e-01 1.55508563e-01 3.76473248e-01 5.89249320e-02
      8.93663615e-03 1.69917068e-03 6.50079129e-03 6.91649597e-03 0.
      8.26454163e-03 5.94709720e-03 2.63952434e-01 3.70619416e-01
      2.51215063e-02 1.58088300e-02 6.09263871e-03 1.20149506e-03
      4.60544042e-03 1.03526302e-02 4.71586019e-01 5.18849418e-02
      9.92897060e-03 9.49865265e-04 1.69917068e-03 1.34331232e-03
      1.80224259e-03 4.97355871e-03 1.93234205e-01 1.73592567e-01
      3.67620021e-01 3.78146410e-01 6.78340271e-02 8.73171613e-02
      1.19508483e-01 1.32643580e-01 6.08151071e-02 6.02268837e-02
      6.34679198e-03 2.81692237e-01 3.95528138e-01 2.68098824e-02
      1.68713145e-02 6.50211517e-03 1.28224562e-03 4.91496455e-03
      1.10484138e-02 6.32280111e-02 2.20627815e-01 2.33691424e-01
      9.37542245e-02 1.07786261e-01 1.12142295e-01 2.65995674e-02
      4.38818857e-02 3.61682624e-02 1.85259447e-01 3.92327160e-01
      4.03561026e-01 7.23930448e-02 9.31856111e-02 1.27540454e-01
      1.41558349e-01 6.49023950e-02 6.42746389e-02 3.23308975e-01
      9.89238545e-02 5.04604615e-02 2.41998080e-02 4.38258573e-02
      1.11732788e-01 1.19858004e-01 1.71899840e-01 1.82534367e-01
      6.55113459e-02 2.28595287e-01 2.42130667e-01 9.71399471e-02
      1.11678720e-01 1.16192065e-01 2.75601503e-02 4.54665832e-02
      3.74744013e-02 9.45209991e-03 4.20124736e-03 2.61096209e-01
      1.80107296e-01 2.61383057e-01 1.67510197e-01 8.63558240e-03
      6.10928377e-03 0. 3.34984571e-01 1.02496266e-01 5.22827283e-02
      2.50737313e-02 4.54085320e-02 1.15767770e-01 1.24186404e-01
      1.78107619e-01 1.89126194e-01 5.86090207e-01 1.48049355e-01
      1.56319335e-01 1.05518870e-01 2.34856876e-03 1.14820205e-01
      7.72155151e-02 6.72527775e-03 5.76971807e-02 7.10613420e-03
      3.15851835e-03 1.96293414e-01 1.35405540e-01 1.96509048e-01
      1.25934988e-01 6.49227295e-03 4.59298957e-03 0. 9.00024362e-03
      7.34119443e-03 0. 2.23340979e-03 7.06266146e-04 4.57144827e-02
      4.05960739e-01 2.57428735e-01 5.63176721e-02 4.40625459e-01
      1.11304224e-01 1.17521636e-01 7.93295950e-02 1.76566537e-03
      8.63223895e-02 5.80510013e-02 5.05609624e-03 4.33770195e-02
      4.05471087e-01 4.63004364e-03 0. 0. 0. 0. 6.34003282e-02
      2.56708622e-01 4.22299325e-01 1.06740845e-02 8.70649051e-03 0.
      2.64877337e-03 8.37615633e-04 5.42163402e-02 4.81460243e-01
      3.05304646e-01 6.67914823e-02 5.80096208e-02 2.25534919e-03 0.
      9.18517262e-03 4.18807846e-03 5.86083308e-02 5.82201295e-02
      7.48135149e-02 3.71397249e-02 4.80879515e-01 5.49112679e-03 0. 0.
      0. 0. 7.51913488e-02 3.04450601e-01 5.00837386e-01 9.61773619e-02
      3.10810152e-02 2.09403923e-03 1.20001417e-02 5.47916349e-03
      1.32438669e-03 4.41338792e-02 4.42390926e-02 2.35277802e-01
      1.29068851e-01 2.59798057e-02 2.43614265e-03 3.85188009e-03 0.
      1.81579369e-03 1.91119742e-02 0. 5.89507967e-02 6.37456298e-01
      7.01343566e-02 1.34212729e-02 1.28396007e-03 2.29681749e-03
      1.81579369e-03 2.43614265e-03 6.72290148e-03 2.61200190e-01
      7.34709576e-02 1.86060164e-02 4.14064666e-03 3.09218513e-03 0. 0.
      4.46766168e-02 4.29615676e-02 4.28375527e-02 5.29030152e-02
      1.20132612e-02 6.94260886e-03 0. 9.76147410e-03 4.62938379e-03
      5.05682826e-02 6.33726418e-01 2.83449203e-01 4.24338877e-01
      4.66867052e-02 8.93420912e-03 8.54700455e-04 1.52893458e-03
      1.20872899e-03 1.62167998e-03 4.47526947e-03 1.73874512e-01
      1.56200722e-01 3.30789000e-01 3.40260774e-01 6.10378906e-02
      7.85690546e-02 1.07535198e-01 1.19354323e-01 5.47221825e-02
      5.41928895e-02 3.52162309e-02 7.99693074e-03 4.62152297e-03 0.
      6.49797218e-03 3.08166631e-03 3.36620547e-02 4.21856016e-01
      1.88685119e-01 3.06463391e-02 4.96903760e-03 7.54752085e-02
      1.21597104e-01 2.40871191e-01 2.07034349e-01 3.26283425e-01
      2.10843533e-01 8.28342140e-02 1.58631623e-01 3.35936964e-01
      3.45556170e-01 6.19878024e-02 7.97917992e-02 1.09208740e-01
      1.21211797e-01 5.55738062e-02 5.50362766e-02 2.76838958e-01
      8.47052708e-02 4.32076491e-02 2.07215082e-02 3.75266559e-02
      9.56731439e-02 1.02630503e-01 1.47192225e-01 1.56298235e-01
      3.11232787e-02 5.04636904e-03 7.66497999e-02 1.23489477e-01
      2.44619802e-01 2.10256353e-01 3.31361294e-01 2.14124814e-01
      8.41233358e-02 3.65358770e-01 2.12362215e-01 1.26456916e-01
      4.61797565e-02 4.85731475e-02 2.09042523e-03 1.12663889e-02
      1.59011111e-01 1.81525633e-01 2.75865614e-01 8.44074562e-02
      4.30557355e-02 2.06486527e-02 3.73947136e-02 9.53367651e-02
      1.02269657e-01 1.46674708e-01 1.55748695e-01 4.82655436e-01
      1.21921204e-01 1.28731683e-01 8.68966207e-02 1.93408714e-03
      9.45564285e-02 6.35883212e-02 5.53838257e-03 4.75146286e-02
      3.64074200e-01 2.11615562e-01 1.26012295e-01 4.60173897e-02
      4.84023690e-02 2.08307547e-03 1.12267770e-02 1.58452034e-01
      1.80887401e-01 4.71006125e-01 1.86068982e-01 4.26401049e-02
      5.13947532e-02 3.41095477e-02 4.91967797e-03 9.06239152e-02
      1.41323030e-01 1.20939746e-01 3.64953518e-01 9.21891034e-02
      9.73387584e-02 6.57057241e-02 1.46243430e-03 7.14975893e-02
      4.80814651e-02 4.18777484e-03 3.59275565e-02 3.35836470e-01
      3.83489113e-03 0. 0. 0. 0. 5.25121056e-02 2.12622091e-01
      3.49774659e-01 3.56145024e-01 1.40693590e-01 3.22417505e-02
      3.88614610e-02 2.57914830e-02 3.71994916e-03 6.85240701e-02
      1.06859542e-01 9.14469883e-02 5.93872845e-01 1.52236179e-01
      8.74613784e-03 0. 0. 0. 4.13638889e-04 0. 4.89667654e-02
      3.86999339e-01 4.41911584e-03 0. 0. 0. 0. 6.05120398e-02
      2.45013908e-01 4.03060913e-01 7.74010345e-02 2.50131935e-02
      1.68522820e-03 9.65740159e-03 4.40948829e-03 1.06583186e-03
      3.55177969e-02 3.56024690e-02 1.89345449e-01 6.84346139e-01
      1.75428525e-01 1.00785643e-02 0. 0. 0. 4.76654503e-04 0.
      5.64265847e-02 2.57531792e-01 4.97146323e-02 1.45401293e-02
      7.53656961e-04 0. 1.06583191e-02 1.54329101e-02 0. 8.48403871e-02
      9.81174782e-02 2.48475801e-02 5.52966539e-03 4.12948756e-03 0. 0.
      5.96638061e-02 5.73734306e-02 5.72078079e-02 7.06498250e-02
      1.60432216e-02 9.27157234e-03 0. 1.30360527e-02 6.18235394e-03
      6.75318837e-02 8.46315861e-01 3.78534883e-01 0. 0. 0. 0. 0. 0. 0.
      0. 0. 2.55829636e-02 0. 1.24893058e-02 7.07177073e-03
      1.99374929e-02 5.22613302e-02 2.03680530e-01 2.40634605e-01
      8.10000151e-02 4.29854281e-02 9.76116676e-03 5.64109627e-03 0.
      7.93151651e-03 3.76152527e-03 4.10883799e-02 5.14923394e-01
      2.30311736e-01 3.74073535e-02 6.06527738e-03 9.21261013e-02
      1.48423135e-01 2.94010788e-01 2.52709061e-01 3.98266166e-01
      2.57358581e-01 1.01108611e-01 1.55654252e-02 0. 7.59885972e-03
      4.30267258e-03 1.21305548e-02 3.17973271e-02 1.23925202e-01
      1.46409154e-01 4.92827855e-02 8.51294864e-03 9.47167538e-03
      8.57759826e-03 2.11457163e-02 6.35576546e-02 1.27070382e-01
      4.42937791e-01 5.32434955e-02 1.20080197e-02 3.61450538e-02
      5.86060621e-03 8.90173316e-02 1.43414631e-01 2.84089446e-01
      2.44181439e-01 3.84826779e-01 2.48674080e-01 9.76967216e-02
      4.24309790e-01 2.46627092e-01 1.46860868e-01 5.36309071e-02
      5.64104766e-02 2.42771767e-03 1.30842328e-02 1.84667706e-01
      2.10814983e-01 8.22568126e-03 9.15205572e-03 8.28814879e-03
      2.04321593e-02 6.14129156e-02 1.22782424e-01 4.27990943e-01
      5.14468066e-02 1.16028124e-02 9.80094224e-02 4.66476195e-02
      2.13030558e-02 1.55449780e-02 6.48116395e-02 8.43585953e-02
      1.80787802e-01 3.13843191e-02 1.55774346e-02 3.98921698e-01
      2.31870443e-01 1.38073623e-01 5.04219607e-02 5.30352183e-02
      2.28245789e-03 1.23013519e-02 1.73618332e-01 1.98201105e-01
      5.16088665e-01 2.03878656e-01 4.67214175e-02 5.63140213e-02
      3.73743549e-02 5.39056677e-03 9.92980152e-02 1.54849827e-01
      1.32515550e-01 9.21451375e-02 4.38565128e-02 2.00284123e-02
      1.46148624e-02 6.09337054e-02 7.93110952e-02 1.69970572e-01
      2.95064729e-02 1.46453762e-02 5.62866591e-03 2.11920892e-03
      7.41240010e-02 2.56211460e-01 3.53855580e-01 1.67134181e-01
      2.27081984e-01 9.08058882e-03 4.83254017e-03 3.94720912e-01
      1.55932844e-01 3.57340164e-02 4.30707447e-02 2.85850894e-02
      4.12287610e-03 7.59462640e-02 1.18434042e-01 1.01352081e-01
      6.58198237e-01 1.68725654e-01 9.69347730e-03 0. 0. 0.
      4.58442228e-04 0. 5.42706065e-02 4.30498179e-03 1.62083807e-03
      5.66923805e-02 1.95958629e-01 2.70639956e-01 1.27829507e-01
      1.73679486e-01 6.94512110e-03 3.69607937e-03 1.83520690e-02
      2.39771545e-01 3.14909190e-01 4.87370864e-02 1.49846021e-02 0.
      4.58442228e-04 7.24860816e-04 8.45385622e-03 7.77784467e-01
      1.99380964e-01 1.14546586e-02 0. 0. 0. 5.41735324e-04 0.
      6.41308874e-02 2.92694330e-01 5.65025061e-02 1.65253896e-02
      8.56558792e-04 0. 1.21135702e-02 1.75400693e-02 0. 9.64242145e-02
      2.16864049e-02 2.83335000e-01 3.72124165e-01 5.75919971e-02
      1.77071150e-02 0. 5.41735324e-04 8.56558792e-04 9.98981390e-03
      9.82986912e-02 9.26672518e-02 9.72156823e-02 3.09906472e-02
      1.99827738e-02 5.48465271e-03 3.00636562e-03 1.04746427e-02 0. 0.
      0. 0. 0. 0. 0. 0. 0. 0. 7.70358071e-02 0. 3.76079865e-02
      2.12946236e-02 6.00360781e-02 1.57370105e-01 6.13325894e-01
      7.24602580e-01 2.43908480e-01 0. 0. 0. 0. 0. 0. 0. 0. 0. 0. 0. 0.
      0. 4.15634364e-02 3.73043269e-02 0. 0. 0. 2.92245150e-02 0.
      1.42670684e-02 8.07838701e-03 2.27754507e-02 5.97003549e-02
      2.32672989e-01 2.74887204e-01 9.25297886e-02 1.59832966e-02
      1.77833308e-02 1.61046758e-02 3.97016667e-02 1.19331248e-01
      2.38578156e-01 8.31627905e-01 9.99661312e-02 2.25453898e-02 0. 0.
      0. 0. 1.57676209e-02 1.41518721e-02 0. 0. 0. 2.57511940e-02 0.
      2.25221924e-02 2.77008861e-03 7.72407949e-02 8.04585069e-02
      2.45027244e-01 8.21391270e-02 2.77008861e-03 1.35382470e-02
      1.50629207e-02 1.36410585e-02 3.36282924e-02 1.01076514e-01
      2.02081576e-01 7.04409361e-01 8.46737847e-02 1.90965012e-02
      1.61308914e-01 7.67750368e-02 3.50616574e-02 2.55847182e-02
      1.06670305e-01 1.38841674e-01 2.97549814e-01 5.16539142e-02
      2.56381370e-02 2.18118969e-02 0. 1.90768521e-02 2.34633335e-03
      6.54248595e-02 6.81503415e-02 2.07544118e-01 6.95738718e-02
      2.34633335e-03 1.88186374e-02 1.89653169e-02 0. 1.22201659e-01
      3.21585298e-01 3.18591952e-01 9.22896788e-02 1.69371404e-02
      1.08111557e-02 1.31252035e-01 6.24694563e-02 2.85285804e-02
      2.08174903e-02 8.67943093e-02 1.12971157e-01 2.42107019e-01
      4.20291834e-02 2.08609551e-02 8.01750273e-03 3.01861297e-03
      1.05582640e-01 3.64949018e-01 5.04033864e-01 2.38066837e-01
      3.23456824e-01 1.29344407e-02 6.88349688e-03 1.53121389e-02
      1.54314889e-02 0. 9.94316861e-02 2.61663973e-01 2.59228349e-01
      7.50932395e-02 1.37812234e-02 8.79670121e-03 8.00614432e-03
      3.52027733e-03 6.82399273e-02 2.36757934e-01 3.48228842e-01
      4.52548973e-02 2.22731605e-02 2.17675278e-03 1.90913852e-03
      6.81170402e-03 2.56462628e-03 8.97034556e-02 3.10062200e-01
      4.28229272e-01 2.02262580e-01 2.74810284e-01 1.09891547e-02
      5.84824756e-03 2.90381853e-02 3.79386693e-01 4.98275787e-01
      7.71159157e-02 2.37098988e-02 0. 7.25385849e-04 1.14693574e-03
      1.33764017e-02 6.80205412e-03 2.99084233e-03 5.79769276e-02
      2.01150537e-01 2.95856684e-01 3.84487510e-02 1.89233720e-02
      1.84937823e-03 1.62201212e-03 6.38201460e-03 5.88222444e-02
      2.19163030e-01 9.79719982e-02 3.69306169e-02 4.72893706e-03
      1.14405202e-02 0. 1.22073693e-02 4.02410366e-02 5.25753021e-01
      6.90509200e-01 1.06867023e-01 3.28571089e-02 0. 1.00523769e-03
      1.58942025e-03 1.85369793e-02 1.82401881e-01 1.71952248e-01
      1.80392265e-01 5.75058758e-02 3.70797962e-02 1.01772556e-02
      5.57857612e-03 1.94366220e-02 0. 8.84417817e-03 8.15156996e-02
      3.03715497e-01 1.35769323e-01 5.11783473e-02 6.55334769e-03
      1.58542395e-02 0. 1.69169381e-02 1.56378280e-02 0. 1.04259260e-01
      0. 0. 0. 0. 0. 5.17477747e-03</_>
    <_>
      0. 0. 0. 0. 0. 0. 0. 0. 0. 0. 0. 0. 0. 0. 0. 0. 0. 0. 0. 0. 0. 0.
      0. 0. 0. 0. 0. 0. 0. 0. 0. 0. 0. 0. 0. 0. 0. 0. 0. 0. 0. 0. 0. 0.
      0. 0. 0. 0. 0. 0. 0. 0. 0. 0. 0. 0. 0. 0. 0. 0. 0. 0. 0. 0. 0. 0.
      0. 0. 0. 0. 0. 0. 0. 0. 0. 0. 0. 0. 0. 0. 0. 0. 0. 0. 0. 0. 0. 0.
      0. 0. 0. 0. 0. 0. 0. 0. 0. 0. 0. 0. 0. 5.71507573e-01
      2.27555186e-01 7.88414657e-01 0. 0. 0. 0. 0. 0. 0. 0. 0. 0. 0. 0.
      0. 0. 0. 0. 0. 0. 0. 0. 0. 0. 0. 0. 3.40844333e-01 1.35712817e-01
      4.70206678e-01 0. 0. 0. 0. 0. 0. 0. 1.35712817e-01 6.92002296e-01
      1.35712817e-01 3.58621985e-01 0. 0. 0. 0. 0. 0. 0. 0. 0. 0. 0. 0.
      0. 0. 0. 0. 0. 0. 0. 0. 0. 0. 0. 1.69072300e-01 8.62102985e-01
      1.69072300e-01 4.46774632e-01 0. 0. 0. 0. 0. 0. 0. 0. 0. 0. 0. 0.
      0. 0. 0. 0. 0. 0. 0. 0. 0. 0. 0. 0. 0. 0. 0. 0. 0. 0. 0. 0. 0. 0.
      0. 0. 0. 0. 0. 0. 0. 0. 0. 0. 0. 0. 0. 0. 0. 0. 0. 0. 0. 0. 0. 0.
      0. 0. 0. 0. 0. 0. 0. 0. 0. 0. 0. 0. 0. 0. 0. 0. 0. 0.
      9.92578506e-01 0. 0. 0. 1.21605583e-01 0. 0. 0. 0. 0. 0. 0. 0. 0.
      0. 0. 0. 0. 0. 0. 0. 0. 0. 0. 0. 0. 0. 2.28926182e-01 0. 0. 0.
      2.80468501e-02 0. 0. 0. 0. 8.97499248e-02 9.81239006e-02
      8.51790726e-01 3.12613189e-01 3.25343460e-01 0. 0. 0. 0. 0. 0. 0.
      0. 0. 0. 0. 0. 0. 0. 0. 1.80863708e-01 7.20138773e-02
      2.49507800e-01 0. 0. 0. 0. 7.53231123e-02 8.23510215e-02
      7.14870036e-01 2.62362331e-01 2.73046285e-01 0. 0. 0. 0. 0. 0.
      3.78044784e-01 1.13579847e-01 2.77753979e-01 0. 0. 0. 0. 0. 0.
      1.95209160e-01 7.77257532e-02 2.69297838e-01 0. 0. 0. 0. 0. 0. 0.
      7.77257532e-02 3.96325141e-01 7.77257532e-02 2.05390796e-01 0. 0.
      0. 0. 4.08029914e-01 1.22588582e-01 2.99784392e-01 0. 0. 0. 0.
      3.40433121e-01 0. 0. 0. 1.52432742e-02 0. 3.04455251e-01
      3.66597921e-01 2.39557967e-01 0. 0. 0. 9.76423174e-02
      4.97880101e-01 9.76423174e-02 2.58020461e-01 0. 0. 0. 0. 0. 0. 0.
      0. 0. 0. 0. 4.27666247e-01 0. 0. 0. 1.91492345e-02 0.
      3.82469326e-01 4.60535526e-01 3.00942689e-01 1.85109273e-01 0. 0.
      0. 0. 0. 0. 0. 0. 0. 0. 0. 0. 0. 0. 0. 0. 0. 0. 0. 0. 0. 0. 0. 0.
      0. 0. 1. 0. 0. 0. 0. 0. 0. 0. 0. 0. 0. 0. 0. 0. 0. 0. 0. 0. 0. 0.
      0. 0. 0. 0. 0. 0. 0. 3.34463805e-01 0. 0. 0. 4.09767739e-02 0. 0.
      0. 0. 0. 0. 0. 0. 0. 0. 0. 0. 0. 8.27730834e-01 2.95487732e-01 0.
      0. 0. 0. 1.68154627e-01 1.47743866e-01 2.52783120e-01
      1.89084098e-01 0. 0. 0. 2.31656060e-02 0. 0. 0. 0. 7.41299391e-02
      8.10465217e-02 7.03545988e-01 2.58206308e-01 2.68721044e-01 0. 0.
      0. 0. 4.67945248e-01 1.67049557e-01 0. 0. 0. 0. 9.50637013e-02
      8.35247785e-02 1.42907158e-01 1.57526121e-01 0. 0. 0. 0. 0.
      9.82833430e-02 0. 0. 7.78789446e-02 8.51453170e-02 7.39126682e-01
      2.71264702e-01 2.82311171e-01 0. 0. 0. 0. 0. 0. 3.90872449e-01
      1.17433794e-01 2.87178606e-01 0. 0. 0. 0. 1.65492758e-01 0. 0. 0.
      0. 0. 1.03253864e-01 0. 0. 0. 0. 0. 0. 0. 0. 0. 0. 0. 0. 0.
      4.95612025e-01 1.48901761e-01 3.64131987e-01 0. 0. 0. 0.
      4.13505822e-01 0. 0. 0. 1.85151864e-02 0. 3.69805425e-01
      4.45286781e-01 2.90978193e-01 0. 0. 0. 0. 0. 0. 0. 0. 0.
      9.25759301e-02 0. 0. 0. 0. 0. 0. 0. 0. 3.60560447e-01 0. 0. 0.
      1.61444973e-02 0. 3.22455466e-01 3.88272166e-01 2.53721297e-01
      1.56063482e-01 0. 0. 0. 0. 0. 0. 0. 0. 8.07224885e-02 0. 0. 0. 0.
      0. 0. 0. 0. 4.84334946e-01 0. 0. 0. 0. 0. 3.35137367e-01
      3.80956739e-01 1.66525841e-01 2.11571470e-01 0. 0. 0. 0. 0. 0. 0.
      0. 0. 0. 0. 0. 0. 0. 0. 0. 0. 6.56601131e-01 0. 0. 0. 0. 0.
      4.54337597e-01 5.16453803e-01 2.25755036e-01 0. 0. 0. 0. 0. 0. 0.
      0. 0. 0. 0. 0. 0. 0. 0. 0. 0. 0. 8.79145622e-01 3.13842058e-01 0.
      0. 0. 0. 1.78599611e-01 1.56921029e-01 2.68484831e-01 0. 0. 0. 0.
      0. 0. 0. 0. 0. 0. 0. 0. 0. 0. 0. 0. 0. 0. 5.43396115e-01
      1.93984404e-01 0. 0. 0. 0. 1.10391647e-01 9.69922021e-02
      1.65949315e-01 1.82925418e-01 0. 0. 0. 0. 0. 1.14130415e-01 0. 0.
      0. 0. 0. 0. 0. 0. 0. 0. 0. 5.64916730e-01 0. 0. 0. 0. 0.
      2.20923528e-01 3.74504596e-01 2.51552165e-01 2.32699081e-01 0. 0.
      0. 0. 0. 1.45185083e-01 0. 0. 0. 0. 0. 0. 0. 0. 0. 0. 0.
      7.18629479e-01 0. 0. 0. 0. 0. 2.81036407e-01 4.76406574e-01
      3.19999039e-01 0. 0. 0. 0. 0. 0. 0. 0. 0. 0. 0. 0. 0. 0. 0. 0. 0.
      0. 6.10847235e-01 0. 0. 0. 0. 0. 0. 0. 0. 0. 0. 0. 0. 0. 0. 0. 0.
      0. 0. 0. 0. 6.22944355e-01 4.88677770e-01 0. 0. 0. 0.
      7.34001175e-02 0. 0. 0. 0. 0. 0. 0. 0. 4.40400720e-01 0. 0. 0. 0.
      0. 3.04736912e-01 3.46399993e-01 1.51420221e-01 0. 0. 0.
      7.48537257e-02 5.87200969e-02 0. 0. 0. 0. 2.44667068e-01
      8.82159695e-02 5.84645748e-01 7.59650916e-02 1.12546854e-01 0.
      3.11410338e-01 8.82159695e-02 1.52224243e-01 4.43614990e-01 0. 0.
      0. 0. 0. 3.06961030e-01 3.48928183e-01 1.52525350e-01 0. 0. 0. 0.
      0. 0. 0. 0. 0. 2.46452764e-01 8.88598114e-02 5.88912785e-01
      7.65195191e-02 1.13368273e-01 0. 3.13683182e-01 8.88598114e-02
      1.53335243e-01 0. 0. 0. 0. 0. 0. 0. 0. 0. 0. 0. 0. 0. 0. 0. 0. 0.
      0. 0. 0. 0. 0. 0. 0. 0. 0. 0. 0. 0. 0. 0. 0. 0. 0. 0. 0. 0. 0. 0.
      0. 0. 0. 0. 0. 0. 0. 0. 0. 0. 0. 0. 0. 0. 0. 4.80300725e-01 0. 0.
      0. 0. 0. 1.87832519e-01 3.18409443e-01 2.13873446e-01 0. 0. 0. 0.
      0. 0. 0. 0. 0. 8.69115591e-02 0. 0. 0. 1.55525953e-01 0.
      7.45091796e-01 0. 0. 3.77958715e-01 0. 0. 0. 0. 0. 1.47809356e-01
      2.50563085e-01 1.68301493e-01 0. 0. 0. 0. 0. 0. 0. 0. 0.
      6.83925301e-02 0. 0. 0. 1.22386634e-01 0. 5.86328387e-01 0. 0. 0.
      0. 2.82330543e-01 5.50633967e-02 5.40538728e-01 0. 7.63591900e-02
      0. 0. 0. 0. 0. 0. 0. 0. 0. 0. 0. 0. 0. 0. 6.71143234e-02
      5.26488088e-02 0. 0. 0. 0. 0. 0. 3.44120145e-01 6.71143234e-02
      6.58838570e-01 0. 9.30708200e-02 0. 0. 0. 0. 5.24197042e-01
      2.75476605e-01 2.76406229e-01 0. 0. 0. 0. 0. 0. 0. 7.13842437e-02
      5.59984073e-02 0. 0. 0. 0. 2.33326703e-01 8.41271356e-02
      5.57547271e-01 7.24440888e-02 1.07330278e-01 0. 2.96976417e-01
      8.41271356e-02 1.45168617e-01 0. 0. 5.57547271e-01 2.93002874e-01
      2.93991625e-01 0. 0. 0. 0. 0. 0. 0. 0. 5.59984073e-02 0. 0. 0. 0.
      3.27163160e-01 1.17960356e-01 7.81774819e-01 1.01578765e-01
      1.50495052e-01 0. 4.16410744e-01 1.17960356e-01 2.03550741e-01 0.
      0. 0. 0. 0. 0. 0. 0. 0. 0. 0. 0. 0. 7.85191581e-02 0. 0. 0. 0. 0.
      0. 0. 0. 0. 0. 0. 0. 0. 0. 0. 0. 0. 0. 0. 0. 0. 0. 0. 0. 0. 0. 0.
      0. 0. 0. 0. 0. 0. 0. 0. 0. 0. 0. 0. 0. 0. 0. 0. 0. 0. 0. 0. 0. 0.
      0. 0. 0. 0. 0. 0. 0. 0. 0. 1.13447286e-01 0. 0. 0. 2.03010932e-01
      0. 9.72582281e-01 0. 0. 0. 0. 0. 0. 0. 0. 0. 0. 0. 0. 0. 0. 0. 0.
      0. 0. 0. 0. 7.92804435e-02 0. 0. 0. 1.41870275e-01 0.
      6.79670334e-01 0. 0. 0. 0. 3.27276826e-01 6.38293475e-02
      6.26591086e-01 0. 8.85153785e-02 0. 0. 0. 0. 0. 0. 0. 0. 0. 0. 0.
      0. 0. 0. 0. 0. 0. 0. 0. 0. 0. 0. 3.45378965e-01 6.73598349e-02
      6.61248684e-01 0. 9.34112817e-02 0. 0. 0. 0. 5.26114583e-01
      2.76484340e-01 2.77417362e-01 0. 0. 0. 0. 0. 0. 0. 0. 0. 0. 0. 0.
      0. 0. 0. 0. 0. 0. 0. 0. 0. 0. 0. 0. 7.99539685e-01 4.20175016e-01
      4.21592921e-01 0. 0. 0. 0. 0. 0. 0. 0. 8.03034157e-02 0. 0. 0. 0.
      0. 0. 0. 0. 0. 0. 0. 0. 0. 0. 0. 0. 0. 0. 0. 0. 0. 0. 0. 0. 0. 0.
      1. 0. 0. 0. 0. 0. 0. 0. 0. 0. 0. 0. 0. 0. 0. 0. 0. 0. 0. 0. 0. 0.
      0. 0. 0. 0. 0. 0. 0. 0. 0. 0.</_>
    <_>
      0. 0. 0. 0. 0. 0. 0. 0. 0. 0. 0. 0. 0. 9.79785398e-02 0. 0. 0. 0.
      8.57312158e-02 0. 0. 0. 0. 0. 0. 0. 0. 1.65835649e-01
      4.57862765e-01 8.03039193e-01 1.99802130e-01 1.75866976e-01
      9.91098583e-02 6.39511943e-02 1.26951471e-01 1.26242451e-02 0. 0.
      0. 0. 3.18541043e-02 0. 0. 0. 0. 8.08607042e-03 3.85472737e-02
      1.14482567e-01 8.08468983e-02 1.38769194e-01 1.29407300e-02 0. 0.
      0. 5.39153367e-02 1.48857176e-01 2.61078537e-01 6.49582893e-02
      5.71766570e-02 3.22219096e-02 2.07913704e-02 4.12735865e-02
      4.10430739e-03 3.74144875e-02 1.16146132e-02 8.50399315e-01
      2.39484563e-01 2.64457405e-01 3.91125120e-02 1.85743049e-02
      4.45174659e-03 2.36921106e-02 6.17199531e-03 2.94226445e-02
      8.73830914e-02 6.17094114e-02 1.05920762e-01 9.87749547e-03 0. 0.
      0. 7.59807299e-04 4.43850504e-03 1.09665096e-02 7.01747909e-02
      1.84248433e-01 4.23500910e-02 1.07452984e-03 5.49801718e-03 0.
      2.85580028e-02 8.86528660e-03 6.49098992e-01 1.82795539e-01
      2.01856971e-01 2.98540853e-02 1.41775319e-02 3.39796161e-03
      1.80838872e-02 1.62025522e-02 5.09694219e-03 9.17168520e-03
      2.26593003e-01 6.03981555e-01 1.45399556e-01 4.88858391e-03
      2.73952424e-03 0. 7.46324018e-04 4.35974076e-03 1.07719013e-02
      6.89294934e-02 1.80978820e-01 4.15985584e-02 1.05546159e-03
      5.40045137e-03 0. 0. 1.66883133e-03 0. 3.47902887e-02
      1.40524670e-01 4.52043265e-02 9.48999524e-02 3.13900039e-02 0.
      1.59150269e-02 5.00649353e-03 9.00892727e-03 2.22571969e-01
      5.93263507e-01 1.42819345e-01 4.80183261e-03 2.69090943e-03 0.
      1.06907589e-02 1.22766141e-02 7.04268925e-03 2.83934902e-02
      4.65392888e-01 8.31233636e-02 5.29630423e-01 1.33506507e-02
      3.07717267e-03 0. 2.00405275e-03 0. 4.17786837e-02 1.68752149e-01
      5.42846136e-02 1.13962695e-01 3.76953743e-02 0. 0. 0. 0. 0.
      2.71332636e-02 0. 0. 0. 0. 1.28382333e-02 1.47426417e-02
      8.45736824e-03 3.40969451e-02 5.58877289e-01 9.98205245e-02
      6.36018336e-01 1.60324220e-02 3.69529054e-03 1.79989673e-02
      2.00405275e-03 1.21938344e-02 1.81981102e-02 2.60113068e-02
      1.07732162e-01 4.51399595e-01 7.82001466e-02 0. 0. 0. 0. 0.
      5.68672605e-02 0. 0. 0. 0. 0. 0. 0. 0. 0. 0. 0. 0. 0.
      3.77231427e-02 4.20019496e-03 2.55564526e-02 3.81405167e-02
      5.45158088e-02 2.25790501e-01 9.46066022e-01 1.63895816e-01 0. 0.
      0. 0. 0. 0. 0. 1.20108292e-01 5.41808829e-02 0. 3.12918089e-02 0.
      0. 0. 0. 0. 0. 0. 0. 6.05298430e-02 1.67119443e-01 2.93108493e-01
      7.29275793e-02 6.41912669e-02 3.61749977e-02 2.33421195e-02
      4.63371575e-02 4.60783672e-03 2.15827540e-01 7.36664832e-02
      4.43237983e-02 1.87069938e-01 4.47025802e-03 0. 4.76507321e-02
      6.45134449e-02 9.77828726e-02 3.51553202e-01 6.86819732e-01
      3.75048190e-01 1.31397862e-02 4.47025802e-03 1.66679416e-02
      1.10633234e-02 1.55836241e-02 1.62063897e-01 3.32350023e-02
      9.17599499e-02 1.60936520e-01 4.00422029e-02 3.52453776e-02
      1.98625363e-02 1.28164133e-02 2.54422538e-02 2.53001601e-03
      2.30633933e-02 7.15958979e-03 5.24211228e-01 1.47625342e-01
      1.63019329e-01 2.41101049e-02 1.14497496e-02 2.74418783e-03
      1.46045154e-02 1.93026647e-01 3.77110809e-01 2.05926985e-01
      7.21463701e-03 2.45447620e-03 9.15183499e-03 6.07451797e-03
      8.55647027e-03 8.89841095e-02 3.84888947e-01 3.54098409e-01
      3.13525856e-01 8.68265778e-02 1.27581894e-01 8.58673081e-03
      4.80367197e-03 1.78902932e-02 9.86416116e-02 2.02428084e-02
      6.28399337e-03 4.60101753e-01 1.29571214e-01 1.43082559e-01
      2.11615115e-02 1.00494791e-02 2.40858179e-03 1.28184268e-02
      1.14848772e-02 3.61287268e-03 6.50117779e-03 1.60616234e-01
      4.28121090e-01 1.03063770e-01 3.46518168e-03 1.94186065e-03 0.
      3.37818176e-01 3.10793221e-01 2.75182575e-01 7.62079433e-02
      1.11979008e-01 7.53659941e-03 4.21619741e-03 1.57023631e-02
      8.65780339e-02 2.12280855e-01 3.35351348e-01 1.06258199e-01
      7.56336935e-03 1.65970162e-01 1.20429089e-03 7.26283854e-03
      1.16075575e-01 8.61285999e-02 8.76733847e-03 2.75799865e-03
      4.96287644e-03 1.22611396e-01 3.26819539e-01 7.86769316e-02
      2.64525414e-03 1.48237974e-03 0. 5.88937104e-03 6.76299352e-03
      3.87970684e-03 1.56415273e-02 2.56377637e-01 4.57913540e-02
      2.91765064e-01 7.35466322e-03 1.69516611e-03 1.62051186e-01
      2.56000906e-01 8.11154991e-02 5.77373290e-03 1.26698494e-01
      9.19332902e-04 5.54431370e-03 8.86099041e-02 6.57489449e-02
      5.82734048e-02 7.62145072e-02 3.86756688e-01 2.40432501e-01
      5.18225670e-01 2.82991350e-01 1.55809999e-01 9.19332902e-04
      4.81189750e-02 4.93421732e-03 5.66615351e-03 3.25048575e-03
      1.31047424e-02 2.14797631e-01 3.83647941e-02 2.44445845e-01
      6.16186485e-03 1.42023957e-03 6.91768201e-03 7.70233106e-04
      4.68655070e-03 6.99422043e-03 9.99712665e-03 4.14055362e-02
      1.73489898e-01 3.00552677e-02 0. 4.88224700e-02 6.38538375e-02
      3.24031472e-01 2.01438516e-01 4.34178472e-01 2.37095058e-01
      1.30540326e-01 7.70233106e-04 4.03149128e-02 2.11082622e-02
      4.32289625e-03 4.87138168e-04 7.70233106e-04 2.03946587e-02
      7.20606446e-02 5.74995100e-01 3.13073695e-01 9.63697210e-02
      9.90784168e-03 1.10316533e-03 6.71230629e-03 1.00174630e-02
      1.43183721e-02 5.93030266e-02 2.48480678e-01 4.30466197e-02 0. 0.
      0. 0. 0. 0. 0. 3.15459929e-02 1.42304050e-02 0. 3.02322805e-02
      6.19146228e-03 6.97702984e-04 1.10316533e-03 2.92102229e-02
      1.03208765e-01 8.23535979e-01 4.48399425e-01 1.38025418e-01
      8.10924023e-02 1.79621167e-02 3.15898471e-03 1.56011141e-03
      3.45345377e-03 0. 1.04680896e-01 3.77683267e-02 3.38919573e-02
      1.44277066e-01 4.92447987e-02 2.96297111e-02 1.25053093e-01
      2.98829214e-03 0. 3.18537094e-02 4.31261435e-02 6.53662011e-02
      2.35007375e-01 4.59127396e-01 2.50713378e-01 8.78372509e-03
      2.98829214e-03 1.11422380e-02 7.39564467e-03 1.04173897e-02
      1.08336978e-01 3.06253821e-01 3.02903038e-02 3.38746347e-02
      3.34101217e-03 1.49414607e-03 4.75076726e-03 3.39569151e-02
      3.02210674e-02 1.02014385e-01 5.68591595e-01 1.20878955e-02
      5.28260367e-03 1.18122613e-02 6.72365725e-03 1.11734634e-02
      5.86317247e-03 4.36411565e-03 4.24138665e-01 1.15567036e-01
      2.25780100e-01 1.23290598e-01 4.31947736e-03 1.46952004e-03
      5.47929760e-03 3.63687612e-03 5.12284692e-03 5.32757007e-02
      2.30436951e-01 2.12002337e-01 1.87711149e-01 5.19839637e-02
      7.63845816e-02 5.14096394e-03 2.87600770e-03 1.07111018e-02
      5.90577424e-02 2.79610127e-01 5.94433350e-03 2.59776902e-03
      5.80878789e-03 3.30642005e-03 5.49465325e-03 2.88326899e-03
      2.14609411e-03 2.08574072e-01 4.20153737e-01 3.01535040e-01
      5.28509498e-01 1.04133062e-01 1.83814153e-01 1.26653880e-01
      4.71349107e-03 8.21486698e-04 2.06875503e-01 2.01512828e-01
      1.85392112e-01 1.64149910e-01 4.54590060e-02 6.67968988e-02
      4.49567707e-03 2.51501519e-03 9.36665945e-03 5.16448952e-02
      1.26628220e-01 2.00041339e-01 6.33843616e-02 4.51164553e-03
      9.90033075e-02 7.18374795e-04 4.33237525e-03 6.92405552e-02
      5.13768047e-02 3.67416620e-01 2.63686776e-01 4.62171733e-01
      9.10624191e-02 1.60742044e-01 1.10756457e-01 4.12186002e-03
      7.18374795e-04 1.80908784e-01 2.99469858e-01 6.86874166e-02
      1.61268469e-03 5.38835861e-03 1.24509200e-01 1.02662869e-01
      3.49292666e-01 2.12627068e-01 1.62673041e-01 1.18864648e-01
      1.87776804e-01 5.94982691e-02 4.23503667e-03 9.29334164e-02
      6.74331270e-04 4.06675739e-03 6.49954155e-02 4.82268929e-02
      4.27435786e-02 5.59033863e-02 2.83686250e-01 1.76357388e-01
      3.80118847e-01 2.07574323e-01 1.14286728e-01 6.74331270e-04
      3.52952965e-02 2.81109363e-01 6.44761920e-02 1.51381106e-03
      5.05799847e-03 1.16875544e-01 9.63686109e-02 3.27877522e-01
      1.99590907e-01 1.52699560e-01 2.85916626e-01 5.11556827e-02
      1.70593814e-03 0. 5.44703705e-03 3.93029023e-03 8.52969068e-04
      5.10832071e-02 4.99596775e-01 3.23512964e-02 4.23115529e-02
      2.14713395e-01 1.33479461e-01 2.87700236e-01 1.57106608e-01
      8.65001082e-02 5.10380545e-04 2.67139226e-02 1.39869954e-02
      2.86448631e-03 3.22792999e-04 5.10380545e-04 1.35141388e-02
      4.77496386e-02 3.81009728e-01 2.07452431e-01 6.38575926e-02
      2.16401488e-01 3.87181602e-02 1.29117200e-03 0. 4.12269449e-03
      2.97471578e-03 6.45585998e-04 3.86633053e-02 3.78129393e-01
      4.26458240e-01 8.22963892e-04 9.68378969e-04 0. 2.28249119e-03
      1.02076109e-03 7.05725327e-02 1.34182096e-01 4.74290729e-01
      1.72072276e-02 3.52397817e-03 3.97109776e-04 6.27885689e-04
      1.66255049e-02 5.87430596e-02 4.68729794e-01 2.55214304e-01
      7.85595551e-02 4.61551473e-02 1.02234511e-02 1.79799099e-03
      8.87964503e-04 1.96559308e-03 0. 5.95809482e-02 2.14964990e-02
      1.92901958e-02 5.24641931e-01 1.01243530e-03 1.19132933e-03 0.
      2.80799018e-03 1.25577138e-03 8.68204832e-02 1.65074900e-01
      5.83486915e-01 1.01919658e-01 2.89609237e-03 1.19132933e-03
      3.66930664e-03 8.42397043e-04 1.25577138e-03 1.75010525e-02
      6.84913695e-02 1.80020362e-01 3.02022547e-01 2.98718046e-02
      3.34066115e-02 3.29485186e-03 1.47350249e-03 4.68512904e-03
      3.34877558e-02 2.98035238e-02 1.00604922e-01 5.60735762e-01
      1.19208852e-02 5.20961778e-03 1.16490601e-02 6.63076108e-03
      1.10190883e-02 5.78216556e-03 4.30381997e-03 4.18278635e-01
      1.30312487e-01 3.53488140e-02 0. 0. 7.36751244e-04 5.26105948e-02
      1.03774667e-01 0. 9.27776694e-02 2.62797564e-01 2.18212660e-02
      1.09772207e-02 1.26651097e-02 1.84646491e-02 3.03770322e-03
      2.47955978e-01 4.61162835e-01 1.41438365e-01 2.32497975e-01
      4.94275894e-03 2.16006488e-03 4.83005168e-03 2.74931360e-03
      4.56884643e-03 2.39746016e-03 1.78449368e-03 1.73430949e-01
      3.49361062e-01 2.50728697e-01 4.39459711e-01 8.65874365e-02
      1.52842879e-01 1.05313674e-01 3.91930388e-03 6.83072489e-04
      1.72018573e-01 1.08963802e-01 9.04775504e-03 4.55148704e-03
      5.25133684e-03 7.65600102e-03 1.25952344e-03 1.02810033e-01
      1.91212028e-01 5.86446151e-02 3.45066905e-01 4.63255160e-02
      7.37461448e-02 8.33223294e-03 1.49123847e-01 9.59314927e-02
      3.56814772e-01 2.44972229e-01 2.40934655e-01 2.67798424e-01
      1.92192987e-01 3.36862415e-01 6.63725361e-02 1.17159821e-01
      8.07268992e-02 3.00429412e-03 5.23600786e-04 1.31858721e-01
      2.18274146e-01 5.00640944e-02 1.17543514e-03 3.92740499e-03
      9.07508358e-02 7.48277381e-02 2.54588425e-01 1.54977188e-01
      1.18567258e-01 2.64506787e-01 3.55102532e-02 5.65291941e-02
      6.38697017e-03 1.14309050e-01 7.35350996e-02 2.73511976e-01
      1.87780440e-01 1.84685498e-01 3.04683656e-01 6.63060695e-02
      1.75444394e-01 6.22664914e-02 3.06787156e-02 2.85642706e-02
      4.74291630e-02 3.48949507e-02 4.41256106e-01 2.27650687e-01
      5.22147305e-02 1.22592901e-03 4.09611734e-03 9.46492776e-02
      7.80421570e-02 2.65524954e-01 1.61634639e-01 1.23660624e-01
      2.31543764e-01 4.14273888e-02 1.38151925e-03 0. 4.41117212e-03
      3.18286568e-03 6.90759625e-04 4.13686968e-02 4.04588282e-01
      3.17772120e-01 6.91544190e-02 1.82981074e-01 6.49413168e-02
      3.19966003e-02 2.97913235e-02 4.94666062e-02 3.63939553e-02
      4.60211426e-01 2.14341998e-01 1.63828023e-03 3.99798751e-02
      1.77795137e-03 9.37664062e-02 9.55843031e-02 3.09352905e-01
      1.75851509e-01 2.11329207e-01 2.02352449e-01 3.62045318e-02
      1.20734761e-03 0. 3.85504426e-03 2.78159371e-03 6.03673805e-04
      3.61532383e-02 3.53580803e-01 3.98772061e-01 7.69536127e-04
      9.05510678e-04 0. 2.13430915e-03 9.54492134e-04 6.59908801e-02
      1.25470832e-01 4.43499237e-01 1.87319353e-01 1.43173814e-03
      3.49395089e-02 1.55380054e-03 8.19450393e-02 8.35337490e-02
      2.70352006e-01 1.53681472e-01 1.84686393e-01 3.80846083e-01
      1.37888506e-01 1.22902520e-01 2.73396913e-02 1.11188218e-02
      1.62941986e-03 0. 4.77246067e-04 3.07760626e-01 4.73767579e-01
      9.14259814e-04 1.07580656e-03 0. 2.53570057e-03 1.13399979e-03
      7.84015357e-02 1.49067640e-01 5.26906431e-01 9.20365453e-02
      2.61525926e-03 1.07580656e-03 3.31349554e-03 7.60710158e-04
      1.13399979e-03 1.58039816e-02 6.18497878e-02 1.62563860e-01
      4.52470332e-01 1.63820654e-01 1.46016330e-01 3.24813612e-02
      1.32098952e-02 1.93585851e-03 0. 5.66999894e-04 3.65639985e-01
      1.81832924e-01 6.57219365e-02 1.63146423e-03 1.83797348e-02
      3.82157136e-03 1.14556430e-02 5.10008540e-03 1.03647951e-02
      6.87498823e-02 1.63503319e-01 4.43522222e-02 0. 0. 9.24403139e-04
      6.60106093e-02 1.30206272e-01 0. 1.16408311e-01 3.29732597e-01
      2.73791831e-02 1.37731396e-02 1.58909373e-02 2.31676307e-02
      3.81141179e-03 3.11110824e-01 5.78621864e-01 1.77462980e-01
      2.58832891e-02 0. 0. 0. 0. 0. 0. 0. 0. 7.21034482e-02
      7.46703940e-03 5.13846241e-02 2.06702831e-03 1.66853610e-02
      2.92321946e-03 5.81962168e-01 1.19772106e-01 3.16571109e-02
      1.20958254e-01 1.00437095e-02 5.05250320e-03 5.82939060e-03
      8.49875435e-03 1.39816850e-03 1.14127100e-01 2.12260157e-01
      6.51000664e-02 3.83051008e-01 5.14249094e-02 8.18639249e-02
      9.24942363e-03 1.65539026e-01 1.06491387e-01 3.96092027e-01
      2.71938145e-01 2.67456144e-01 2.64502428e-02 2.73918966e-03
      1.88498031e-02 7.58263399e-04 6.12081541e-03 1.07234635e-03
      2.13485509e-01 4.39368896e-02 1.16130142e-02 2.03463412e-03
      1.51652680e-03 1.00452909e-02 1.19104842e-02 2.74939060e-01
      5.94794713e-02 5.42623878e-01 5.45428433e-02 2.14469270e-03
      2.98016071e-01 4.00089025e-02 6.36906475e-02 7.19610928e-03
      1.28790393e-01 8.28509629e-02 3.08162093e-01 2.11569577e-01
      2.08082542e-01 3.43282759e-01 7.47061148e-02 1.97670728e-01
      7.01547787e-02 3.45652774e-02 3.21829617e-02 5.34377694e-02
      3.93156484e-02 4.97157037e-01 1.58295804e-03 1.17986731e-03
      7.81529862e-03 9.26643144e-03 2.13904306e-01 4.62753996e-02
      4.22164768e-01 4.24346738e-02 1.66858430e-03 3.69356875e-03
      2.35973462e-03 8.83600861e-02 4.78664003e-02 1.88341111e-01
      3.04050110e-02 5.63468188e-02 4.71946923e-03 0. 3.72828871e-01
      8.11360180e-02 2.14684114e-01 7.61929527e-02 3.75402868e-02
      3.49529274e-02 5.80371208e-02 4.26995195e-02 5.39946973e-01
      2.51478583e-01 1.92212639e-03 4.69067320e-02 2.08599679e-03
      1.10012241e-01 1.12145104e-01 3.62950951e-01 2.06319302e-01
      2.47943804e-01 4.01147176e-03 2.56283535e-03 9.59651768e-02
      5.19862287e-02 2.04551488e-01 3.30219492e-02 6.11965507e-02
      5.12567069e-03 0. 3.48490220e-03 1.92212639e-03 5.71644120e-02
      5.50900772e-02 3.08301300e-01 8.08651447e-02 1.03420898e-01
      1.28141767e-03 2.64244946e-03 2.36571595e-01 1.80818769e-03
      4.41262200e-02 1.96234416e-03 1.03491001e-01 1.05497435e-01
      3.41436148e-01 1.94089219e-01 2.33246341e-01 4.80982661e-01
      1.74143791e-01 1.55217513e-01 3.45281661e-02 1.40423141e-02
      2.05784617e-03 0. 6.02729269e-04 3.88680726e-01 3.27832624e-03
      1.80818769e-03 5.37758507e-02 5.18244766e-02 2.90025979e-01
      7.60716647e-02 9.72903743e-02 1.20545854e-03 2.48581194e-03
      3.46474983e-02 6.27355725e-02 3.90321761e-01 5.77670261e-02
      8.65432918e-02 8.34412873e-03 7.62398879e-04 1.45156425e-03
      1.96376559e-03 5.91215253e-01 2.14054421e-01 1.90790579e-01
      4.24414054e-02 1.72605608e-02 2.52946769e-03 0. 7.40863965e-04
      4.77759361e-01 2.37589940e-01 8.58748332e-02 2.13173428e-03
      2.40156744e-02 4.99341311e-03 1.49683869e-02 6.66396925e-03
      1.35430424e-02 8.98312628e-02 4.25880812e-02 7.71134421e-02
      4.79776531e-01 7.10061938e-02 1.06377460e-01 1.02564534e-02
      9.37127043e-04 1.78423675e-03 2.41382560e-03 5.08724637e-02
      5.48497885e-02 6.51917830e-02 1.40958987e-02 2.31927121e-03
      4.50755795e-03 1.24196578e-02 1.51306102e-02 7.73656741e-03
      4.23163027e-02 0. 0. 0. 0. 0. 0. 0. 0. 1.17881127e-01
      1.22077810e-02 8.40081573e-02 3.37936194e-03 2.72787139e-02
      4.77913953e-03 9.51443553e-01 1.95814088e-01 5.17558642e-02 0. 0.
      0. 0. 0. 0. 0. 0. 0. 0. 0. 0. 0. 3.02259298e-03 0. 1.73357457e-01
      0. 0. 3.96647491e-02 4.10768483e-03 2.82671396e-02 1.13709073e-03
      9.17876605e-03 1.60808908e-03 3.20142567e-01 6.58877045e-02
      1.74148604e-02 3.05113452e-03 2.27418146e-03 1.50639042e-02
      1.78609453e-02 4.12298232e-01 8.91953334e-02 8.13717961e-01
      8.17923695e-02 3.21617816e-03 0. 0. 0. 0. 1.01704488e-03 0.
      5.83314747e-02 0. 0. 6.18479075e-03 3.87556758e-03 4.62948903e-02
      9.50282812e-03 1.32105976e-01 1.64308622e-02 1.04595602e-01
      9.32116061e-02 1.60808908e-03 2.71157292e-03 2.02108710e-03
      1.33874379e-02 1.58731975e-02 3.66413444e-01 7.92687610e-02
      7.23159075e-01 7.26896748e-02 2.85824877e-03 6.32700371e-03
      4.04217420e-03 1.51358917e-01 8.19941089e-02 3.22624236e-01
      5.20831272e-02 9.65208858e-02 8.08434840e-03 0. 5.49648376e-03
      3.44425463e-03 4.11427207e-02 8.44525639e-03 1.17403865e-01
      1.46022672e-02 9.29551274e-02 8.28380659e-02 1.42912439e-03
      1.10462187e-02 4.28073108e-03 4.17701574e-03 2.57423185e-02
      3.71280164e-01 8.40627626e-02 8.41389224e-02 2.77700257e-02 0.
      7.38908490e-03 4.72071348e-03 1.76766768e-01 9.57580432e-02
      3.76781523e-01 6.08260557e-02 1.12723351e-01 9.44142696e-03 0.
      6.41915016e-03 3.54053499e-03 1.05296195e-01 1.01475291e-01
      5.67887485e-01 1.48952678e-01 1.90500125e-01 2.36035674e-03
      4.86736186e-03 1.29004912e-02 4.99931537e-03 4.87818988e-03
      3.00635491e-02 4.33605045e-01 9.81739461e-02 9.82628912e-02
      3.24316360e-02 0. 8.68094061e-03 2.96735913e-02 1.27444386e-01
      5.02674952e-02 4.08298939e-01 4.81373109e-02 1.65138599e-02
      9.53457318e-03 3.84516548e-03 5.65953180e-03 3.12156137e-03
      9.28358361e-02 8.94670859e-02 5.00685811e-01 1.31326169e-01
      1.67957053e-01 2.08104099e-03 4.29137656e-03 5.98136410e-02
      1.08303435e-01 6.73831224e-01 9.97259915e-02 1.49403840e-01
      1.44048706e-02 1.31616578e-03 2.50590499e-03 3.39014293e-03
      7.65367039e-03 2.61621289e-02 1.12363093e-01 4.43190299e-02
      3.59982371e-01 4.24409211e-02 1.45596713e-02 8.40628706e-03
      3.39014293e-03 2.32667453e-03 2.99595185e-02 1.61247656e-01
      1.12572080e-02 1.05464868e-01 8.61587375e-03 1.97424856e-03
      8.58886819e-03 0. 7.95602128e-02 1.44058198e-01 8.96286488e-01
      1.32649034e-01 1.98727280e-01 1.91604216e-02 1.75067817e-03
      3.33319209e-03 4.50934796e-03 9.50365439e-02 1.02466710e-01
      1.21786945e-01 2.63330173e-02 4.33270773e-03 8.42071883e-03
      2.32015755e-02 2.82659959e-02 1.44529389e-02 3.09479120e-03
      3.98502052e-02 2.14481145e-01 1.49736069e-02 1.40282512e-01
      1.14602754e-02 2.62601720e-03 1.14243543e-02 0. 0. 0.
      8.73692483e-02 0. 0. 0. 0. 0. 0.</_>
    <_>
      0. 0. 0. 0. 0. 0. 0. 0. 0. 0. 0. 0. 0. 0. 0. 0. 0. 0. 0. 0. 0. 0.
      0. 0. 0. 0. 0. 7.04268273e-03 4.95651597e-03 9.99872863e-01
      1.04949530e-02 8.36191420e-03 0. 0. 0. 0. 0. 0. 0. 0. 0. 0. 0. 0.
      0. 0. 1.00776508e-01 3.27214986e-01 1.21549666e-01 2.23170638e-01
      0. 0. 2.44591082e-03 0. 5.60388109e-03 3.94391222e-03
      7.95601428e-01 8.35086126e-03 6.65359665e-03 0. 0. 0. 0.
      1.21406019e-02 1.53404661e-02 4.20207471e-01 6.43931627e-02
      4.27376740e-02 3.36385891e-02 2.88479645e-02 1.18590463e-02
      3.45904008e-03 0. 8.64374712e-02 2.80657053e-01 1.04254909e-01
      1.91416681e-01 0. 0. 2.09789304e-03 0. 4.69103130e-03
      7.88316578e-02 0. 0. 8.38931501e-01 1.17601663e-01 8.69004708e-03
      0. 0. 1.04131699e-02 1.31577393e-02 3.60418022e-01 5.52309453e-02
      3.66567224e-02 2.88523044e-02 2.47433167e-02 1.01716751e-02
      2.96686869e-03 1.90686248e-02 1.04894647e-02 2.00151969e-02
      5.22506014e-02 2.06405371e-02 3.78196537e-02 2.54754294e-02
      6.76550157e-03 2.96686869e-03 3.91158462e-03 6.57332465e-02 0. 0.
      6.99537337e-01 9.80613455e-02 7.24613667e-03 0. 0. 0.
      3.49862780e-03 0. 5.36411032e-02 6.96748972e-01 1.51907047e-02
      2.21272628e-03 0. 0. 1.59002431e-02 8.74656904e-03 1.66895352e-02
      4.35688086e-02 1.72109716e-02 3.15356627e-02 2.12425143e-02
      5.64136775e-03 2.47390335e-03 8.82874615e-03 8.50789994e-03
      3.41232307e-02 3.04655936e-02 2.42518242e-02 2.61298586e-02
      1.17656793e-02 8.06862488e-03 7.42170960e-03 0. 3.82041442e-03 0.
      5.85747473e-02 7.60832548e-01 1.65878702e-02 2.41624215e-03 0. 0.
      1.70854118e-03 0. 0. 3.82041442e-03 1.40132606e-01 2.70144083e-03
      3.99457335e-01 6.16023270e-03 0. 9.64077096e-03 9.29041486e-03
      3.72617170e-02 3.32676694e-02 2.64823884e-02 2.85331551e-02
      1.28478287e-02 8.81073810e-03 8.10432248e-03 4.40998189e-03
      7.64082884e-03 1.22008380e-02 1.84353329e-02 2.48445477e-02
      6.21990450e-02 4.77339506e-01 2.71556210e-02 0. 2.37058895e-03 0.
      0. 5.30079845e-03 1.94433004e-01 3.74823040e-03 5.54244280e-01
      8.54727998e-03 0. 0. 0. 0. 0. 0. 0. 0. 0. 0. 6.11881958e-03
      1.06015969e-02 1.69285778e-02 2.55788956e-02 3.44716385e-02
      8.63007382e-02 6.62305236e-01 3.76782343e-02 0. 1.89647116e-02 0.
      3.35251912e-03 5.30079845e-03 0. 0. 3.78962606e-01 2.44035617e-01
      3.90967540e-02 0. 0. 0. 0. 0. 0. 0. 0. 0. 4.30703443e-03
      3.03121470e-03 6.11483872e-01 6.41831057e-03 5.11382567e-03 0. 0.
      0. 0. 1.46573380e-01 0. 3.63696516e-01 7.18300976e-03
      3.36283096e-03 0. 0. 0. 8.92577171e-02 1.77912898e-02
      5.73920608e-02 5.05552649e-01 9.54408646e-02 4.18301076e-01
      1.42111912e-01 9.51152202e-03 2.52741482e-02 0. 3.79275228e-03
      2.66927201e-03 5.38469553e-01 5.65193128e-03 4.50320821e-03 0. 0.
      0. 0. 8.21685884e-03 1.03825526e-02 2.84399837e-01 4.35818173e-02
      2.89252046e-02 2.27668695e-02 1.95245370e-02 8.02629907e-03
      2.34110653e-03 1.56669188e-02 5.05391508e-02 4.45187032e-01
      8.40447322e-02 3.68353754e-01 1.25143021e-01 8.37579742e-03
      2.22562850e-02 0. 9.23652276e-02 6.68795630e-02 6.06356598e-02
      1.59714937e-01 4.07710671e-01 3.05347070e-02 2.32698783e-01
      4.18147333e-02 0. 9.16820019e-03 1.15846368e-02 3.17327470e-01
      4.86276895e-02 3.22741456e-02 2.54028030e-02 2.17850748e-02
      8.95557832e-03 2.61215819e-03 1.67888328e-02 9.23537370e-03
      1.76222362e-02 4.60036658e-02 1.81728136e-02 3.32980417e-02
      2.24296581e-02 5.95663721e-03 2.61215819e-03 1.03059210e-01
      7.46228322e-02 6.76560104e-02 1.78206623e-01 4.54915136e-01
      3.40699926e-02 2.59640485e-01 4.66560125e-02 0. 2.07544759e-01
      4.82539320e-03 2.48124197e-01 9.68354940e-03 6.64589703e-01
      8.78729448e-02 1.28501188e-02 5.37126996e-02 4.75534275e-02
      1.68856047e-02 9.28860717e-03 1.77238118e-02 4.62688357e-02
      1.82775632e-02 3.34899761e-02 2.25589462e-02 5.99097181e-03
      2.62721488e-03 9.37587768e-03 9.03514773e-03 3.62378992e-02
      3.23535912e-02 2.57547479e-02 2.77491659e-02 1.24948164e-02
      8.56865011e-03 7.88164418e-03 2.08741069e-01 4.85320715e-03
      2.49554411e-01 9.73936636e-03 6.68420494e-01 8.83794576e-02
      1.29241887e-02 5.40223084e-02 4.78275307e-02 9.24105756e-03
      2.23215930e-02 2.37336546e-01 1.16404787e-01 5.09081423e-01
      7.69036189e-02 2.50926763e-01 1.62670970e-01 2.62721488e-03
      9.11010429e-03 8.77903309e-03 3.52106839e-02 3.14364806e-02
      2.50246916e-02 2.69625746e-02 1.21406326e-02 8.32575932e-03
      7.65822735e-03 4.16723872e-03 7.22024636e-03 1.15292547e-02
      1.74205769e-02 2.34770030e-02 5.87753542e-02 4.51064795e-01
      2.56608650e-02 0. 8.97910632e-03 2.16888543e-02 2.30608895e-01
      1.13105118e-01 4.94650722e-01 7.47236758e-02 2.43813857e-01
      1.58059821e-01 2.55274260e-03 2.30827495e-01 1.20046176e-01
      6.81548864e-02 2.52163053e-01 4.71680671e-01 1.35071978e-01
      6.33543776e-03 0. 9.71647054e-02 3.80402710e-03 6.59093820e-03
      1.05243782e-02 1.59022193e-02 2.14307755e-02 5.36525659e-02
      4.11750525e-01 2.34242938e-02 0. 1.17902290e-02 0. 2.08423752e-03
      3.29546910e-03 0. 0. 2.35598400e-01 1.51715234e-01 2.43061781e-02
      2.10708842e-01 1.09583095e-01 6.22145832e-02 2.30184823e-01
      4.30569530e-01 1.23299263e-01 5.78324823e-03 0. 8.86959434e-02
      1.99697003e-01 7.98907317e-03 5.78324869e-03 1.19242361e-02
      4.96813655e-02 1.54822439e-01 4.99323308e-01 2.61741757e-01
      2.01840386e-01 9.97992754e-02 0. 2.47634664e-01 4.89078695e-03
      2.28969334e-03 0. 0. 0. 6.07740320e-02 1.21137807e-02
      3.90772596e-02 3.44222039e-01 6.49840310e-02 2.84813941e-01
      9.67615396e-02 6.47623045e-03 1.72087289e-02 0. 4.34625566e-01
      6.39988715e-03 2.06390163e-03 0. 9.15877335e-03 1.81016151e-03 0.
      1.56475995e-02 7.29460269e-02 4.39983457e-01 6.56446442e-02
      1.13036998e-01 4.01921049e-02 1.81782708e-01 2.10093349e-01
      2.61397451e-01 3.06127965e-01 2.52342820e-01 1.05245551e-02
      3.39506529e-02 2.99062997e-01 5.64586744e-02 2.47448757e-01
      8.40672478e-02 5.62660350e-03 1.49510894e-02 0. 6.20481260e-02
      4.49276380e-02 4.07331772e-02 1.07291594e-01 2.73887545e-01
      2.05122791e-02 1.56319916e-01 2.80898549e-02 0. 3.82261336e-01
      5.70326187e-02 9.82075036e-02 3.49192433e-02 1.57934353e-01
      1.82530880e-01 2.27104321e-01 2.65966564e-01 2.19237566e-01
      4.76077586e-01 6.49748817e-02 5.31180650e-02 4.42650951e-02
      1.60562262e-01 1.21151574e-01 1.56247064e-01 5.38476855e-02
      1.59854695e-01 5.18645383e-02 3.75539362e-02 3.40478830e-02
      8.96824673e-02 2.28936017e-01 1.71457212e-02 1.30664065e-01
      2.34796349e-02 0. 1.04446888e-01 2.42837868e-03 1.24868490e-01
      4.87324549e-03 3.34454745e-01 4.42220531e-02 6.46682130e-03
      2.70309132e-02 2.39312593e-02 3.97941828e-01 5.43109477e-02
      4.44001146e-02 3.70001309e-02 1.34210140e-01 1.01267695e-01
      1.30603164e-01 4.50099856e-02 1.33618698e-01 7.05114245e-01
      7.29629174e-02 4.30195555e-02 0. 6.03224598e-02 2.24410859e-03
      1.24793071e-02 0. 1.91477269e-01 8.09467435e-02 1.88200304e-03
      9.67735648e-02 3.77678452e-03 2.59203732e-01 3.42722647e-02
      5.01181185e-03 2.09490638e-02 1.85468197e-02 3.58354766e-03
      8.65598861e-03 9.20356587e-02 4.51400802e-02 1.97414353e-01
      2.98221037e-02 9.73057374e-02 6.30814359e-02 1.01879577e-03
      5.46466291e-01 5.65465465e-02 3.33403237e-02 0. 4.67501432e-02
      1.73919299e-03 9.67151206e-03 0. 1.48395643e-01 6.98292434e-01
      5.52421510e-02 3.28330547e-02 0. 6.44342974e-04 2.59343032e-02
      3.41714472e-02 2.65170466e-02 1.71654493e-01 3.48298368e-03
      8.41307826e-03 8.94528925e-02 4.38733324e-02 1.91874385e-01
      2.89852172e-02 9.45750847e-02 6.13112040e-02 9.90205561e-04
      8.95376951e-02 4.65657599e-02 2.64371932e-02 9.78137329e-02
      1.82964325e-01 5.23942485e-02 2.45750835e-03 0. 3.76900658e-02
      6.78696513e-01 5.36919087e-02 3.19116712e-02 0. 6.26260997e-04
      2.52065174e-02 3.32125053e-02 2.57729087e-02 1.66837424e-01
      5.86349845e-01 1.34463944e-02 3.08159236e-02 0. 9.80912521e-02
      1.68625941e-03 1.26808193e-02 2.51909532e-02 1.77216843e-01
      1.00241937e-01 5.21327034e-02 2.95977630e-02 1.09507374e-01
      2.04837739e-01 5.86579889e-02 2.75130360e-03 0. 4.21959162e-02
      9.50031951e-02 3.80069553e-03 2.75130384e-03 5.67279710e-03
      2.36352514e-02 7.36547261e-02 2.37546444e-01 1.24520168e-01
      9.60228816e-02 6.56448066e-01 1.50539130e-02 3.44999731e-02 0.
      1.09818079e-01 1.88785186e-03 1.41968131e-02 2.82025356e-02
      1.98403150e-01 5.13292432e-01 1.50417894e-01 1.26805097e-01
      2.99461577e-02 3.50565300e-04 0. 1.98309682e-03 3.33703607e-02
      2.04956621e-01 3.94248903e-01 5.80533827e-03 1.87216536e-03 0.
      8.30792356e-03 1.64199772e-03 0. 1.41939400e-02 6.61693513e-02
      3.99109036e-01 5.95462620e-02 1.02535874e-01 3.64582650e-02
      1.64895117e-01 1.90575704e-01 2.37113655e-01 2.77688712e-01
      2.28900194e-01 2.41093144e-01 6.80799503e-03 4.47865436e-03
      1.16106775e-03 3.11547145e-03 2.32213549e-03 4.89854999e-03 0.
      2.48531774e-01 1.01277046e-01 1.39098898e-01 5.80491759e-02
      6.97714165e-02 2.46787533e-01 2.13296890e-01 1.55378744e-01
      2.87145287e-01 2.12426528e-01 2.92963594e-01 4.37095761e-02
      7.52658471e-02 2.67619714e-02 1.21040277e-01 1.39890954e-01
      1.74051866e-01 2.03835741e-01 1.68022826e-01 3.64864022e-01
      4.97964993e-02 4.07094769e-02 3.39245982e-02 1.23054288e-01
      9.28500965e-02 1.19747140e-01 4.12686579e-02 1.22512020e-01
      7.43418112e-02 1.02104709e-01 4.26106527e-02 5.12152910e-02
      1.81152910e-01 1.56569317e-01 1.14054836e-01 2.10777283e-01
      1.55930430e-01 5.84962189e-01 3.54488939e-02 7.36479908e-02
      2.77681556e-03 3.81148886e-04 0. 6.27132552e-03 7.52127990e-02
      2.53614724e-01 2.94056594e-01 4.01327312e-02 3.28091830e-02
      2.73410119e-02 9.91737321e-02 7.48311207e-02 9.65083838e-02
      3.32598463e-02 9.87366959e-02 5.21039724e-01 5.39154857e-02
      3.17890272e-02 0. 4.45749015e-02 1.65826990e-03 9.22150537e-03 0.
      1.41490921e-01 4.71441358e-01 2.85694972e-02 5.93554750e-02
      2.23793229e-03 3.07181122e-04 0. 5.05427923e-03 6.06166124e-02
      2.04396933e-01 5.26901841e-01 1.10755733e-03 0. 9.71392030e-04
      9.21543397e-04 0. 2.87013073e-02 6.66420758e-02 1.48407847e-01
      4.35481936e-01 4.50622477e-02 2.65690833e-02 0. 3.72554399e-02
      1.38597214e-03 7.70727964e-03 0. 1.18257277e-01 5.56473017e-01
      4.40227650e-02 2.61648353e-02 0. 5.13480336e-04 2.06671841e-02
      2.72314083e-02 2.11315770e-02 1.36792392e-01 4.40381438e-01
      9.25689877e-04 0. 8.11883772e-04 7.70220533e-04 0. 2.39883829e-02
      5.56990579e-02 1.24038406e-01 4.60133344e-01 4.45523299e-02
      1.32419005e-01 0. 5.99270426e-02 3.40361223e-02 2.79812682e-02
      1.82791073e-02 9.72728208e-02 5.39951861e-01 4.27157730e-02
      2.53880266e-02 0. 4.98235633e-04 2.00535972e-02 2.64229346e-02
      2.05042008e-02 1.32731155e-01 4.66483444e-01 1.06975725e-02
      2.45162826e-02 0. 7.80386403e-02 1.34154048e-03 1.00885024e-02
      2.00412143e-02 1.40988737e-01 4.46472436e-01 4.32296172e-02
      1.28487602e-01 0. 5.81478663e-02 3.30256224e-02 2.71505304e-02
      1.77364182e-02 9.43848863e-02 4.41466361e-01 2.15776283e-02
      5.11324443e-02 6.07400909e-02 2.76734568e-02 2.07504462e-02
      1.05691736e-03 3.24255205e-03 8.38523284e-02 5.78641176e-01
      1.32696163e-02 3.04107908e-02 0. 9.68016610e-02 1.66409032e-03
      1.25141060e-02 2.48597711e-02 1.74886987e-01 4.52453375e-01
      1.32589296e-01 1.11775257e-01 2.63967253e-02 3.09013820e-04 0.
      1.74804602e-03 2.94150673e-02 1.80663705e-01 5.47609150e-01
      2.67655887e-02 6.34263381e-02 7.53439739e-02 3.43270525e-02
      2.57395264e-02 1.31103455e-03 4.02216660e-03 1.04013145e-01
      1.63268775e-01 5.27540147e-02 5.24413818e-03 2.79723946e-02
      1.76137872e-02 2.76390370e-03 4.40728012e-03 3.61028221e-03
      2.79021077e-02 3.04616600e-01 8.60177167e-03 5.65869454e-03
      1.46698696e-03 3.93633917e-03 2.93397391e-03 6.18922478e-03 0.
      3.14015180e-01 1.27961621e-01 1.75748810e-01 7.33440295e-02
      8.81548598e-02 3.11811358e-01 2.69496560e-01 1.96318075e-01
      3.62802625e-01 2.68396884e-01 1.28587082e-01 1.38395261e-02
      2.36544525e-03 0. 1.96816958e-03 6.28312156e-02 1.86266467e-01
      5.10587320e-02 3.76017168e-02 5.35425134e-02 1.46698696e-03
      1.95379347e-01 2.06475127e-02 2.10111633e-01 1.83429196e-01
      3.94703805e-01 2.07636505e-02 3.28454338e-02 8.99444744e-02
      1.23534180e-01 5.15536629e-02 6.19642213e-02 2.19172806e-01
      1.89429671e-01 1.37992367e-01 2.55014658e-01 1.88656688e-01
      7.07732499e-01 4.28888164e-02 8.91050324e-02 3.35960626e-03
      4.61143383e-04 0. 7.58753484e-03 9.09982622e-02 3.06842715e-01
      3.76351364e-02 1.03114801e-03 1.37332529e-01 1.45131769e-02
      1.47687867e-01 1.28932744e-01 2.77438074e-01 1.45948101e-02
      2.30871197e-02 4.41102274e-02 6.85134623e-03 6.92552179e-02
      1.24789858e-02 7.56964684e-02 4.64829654e-02 6.21353462e-03
      4.30815518e-02 5.26790600e-03 6.14132643e-01 3.72166336e-02
      7.73206130e-02 2.91528786e-03 4.00155724e-04 0. 6.58405945e-03
      7.89634585e-02 2.66261786e-01 6.86379313e-01 1.44278200e-03 0.
      1.26540358e-03 1.20046723e-03 0. 3.73883396e-02 8.68126526e-02
      1.93326488e-01 3.82765122e-02 5.94523409e-03 6.00959957e-02
      1.08286003e-02 6.56853691e-02 4.03354466e-02 5.39177516e-03
      3.73838805e-02 4.57120873e-03 4.63122725e-02 5.57988044e-03
      4.02543880e-02 7.48046022e-03 4.88394797e-02 9.33498889e-03
      4.31467853e-02 7.58413039e-03 1.26540358e-03 6.41205370e-01
      1.34782551e-03 0. 1.18212122e-03 1.12145860e-03 0. 3.49276289e-02
      8.10990930e-02 1.80602744e-01 6.69964612e-01 6.48692027e-02
      1.92805067e-01 0. 8.72551352e-02 4.95573655e-02 4.07413617e-02
      2.66147945e-02 1.41631439e-01 4.32642363e-02 5.21264132e-03
      3.76050510e-02 6.98813470e-03 4.56251167e-02 8.72060750e-03
      4.03070860e-02 7.08498200e-03 1.18212122e-03 1.01537900e-02
      4.69136890e-03 4.25297767e-02 6.30763695e-02 1.00239716e-01
      3.28031890e-02 3.81671153e-02 3.85149522e-03 1.18212122e-03
      6.57912254e-01 6.37022406e-02 1.89336583e-01 0. 8.56854543e-02
      4.86658514e-02 4.00084406e-02 2.61360053e-02 1.39083549e-01
      6.50535405e-01 3.17963324e-02 7.53476769e-02 8.95052999e-02
      4.07790169e-02 3.05774137e-02 1.55745074e-03 4.77815559e-03
      1.23562999e-01 9.97112785e-03 4.60697338e-03 4.17646840e-02
      6.19416535e-02 9.84364450e-02 3.22130732e-02 3.74805033e-02
